%YAML:1.0
opencv_ml_svm:
   format: 3
   svmType: C_SVC
   kernel:
      type: RBF
      gamma: 1.0000000000000000e-002
   C: 10.
   term_criteria: { epsilon:1.1920928955078125e-007 }
   var_count: 324
   class_count: 10
   class_labels: !!opencv-matrix
      rows: 10
      cols: 1
      dt: i
      data: [ 0, 1, 2, 3, 4, 5, 6, 7, 8, 9 ]
   sv_total: 265
   support_vectors:
      - [ 5.93037643e-002, 4.79763821e-002, 4.75929640e-002,
          2.17717756e-002, 4.87296768e-002, 1.83176529e-002,
          3.20548639e-002, 3.43949944e-002, 4.67753075e-002,
          2.04585508e-001, 6.84189722e-002, 3.55946645e-002,
          2.20230147e-002, 3.83784845e-002, 1.62831042e-002,
          3.37995701e-002, 3.63164879e-002, 8.12077299e-002,
          3.22265655e-001, 4.46295738e-001, 2.71103501e-001,
          9.20098051e-002, 1.11999094e-001, 5.93865514e-002,
          3.80478799e-002, 4.96423095e-002, 7.74320066e-002,
          4.46295738e-001, 4.46295738e-001, 1.94401428e-001,
          6.77581728e-002, 7.06446841e-002, 3.86551879e-002,
          4.08549234e-002, 6.93794712e-002, 2.36868680e-001,
          1.85663462e-001, 3.08831390e-002, 1.59708466e-002,
          1.08625684e-002, 2.00849492e-002, 9.83590353e-003,
          1.94981843e-002, 2.19342057e-002, 7.52902403e-002,
          2.08419695e-001, 2.53800116e-002, 2.03768853e-002,
          1.42165078e-002, 2.34037600e-002, 1.16874911e-002,
          2.09629070e-002, 2.42287535e-002, 1.37848407e-001,
          4.75031286e-001, 2.66074061e-001, 2.67264191e-002,
          1.25709586e-002, 1.38372751e-002, 7.96542224e-003,
          1.42935105e-002, 2.98589189e-002, 3.60220850e-001,
          4.75031286e-001, 7.05400780e-002, 1.75873730e-002,
          6.69330591e-003, 6.86331512e-003, 4.73945448e-003,
          1.23949815e-002, 4.14648764e-002, 4.75031286e-001,
          1.54602066e-001, 2.81036012e-002, 2.24683117e-002,
          1.47461081e-002, 2.35011354e-002, 1.41985510e-002,
          2.28740703e-002, 3.38541307e-002, 2.10153699e-001,
          7.41268545e-002, 3.52018811e-002, 2.27966234e-002,
          1.82278082e-002, 2.15950608e-002, 1.60010606e-002,
          2.38244999e-002, 5.21253273e-002, 1.49894238e-001,
          4.28409100e-001, 9.06571820e-002, 2.92250980e-002,
          1.02784187e-002, 1.24932798e-002, 1.27769979e-002,
          3.18118632e-002, 1.87266648e-001, 4.28409100e-001,
          2.37290204e-001, 1.09454587e-001, 5.69465943e-002,
          3.35767902e-002, 6.99087754e-002, 1.02319539e-001,
          1.48080245e-001, 4.28409100e-001, 4.28409100e-001,
          1.25980809e-001, 2.43262306e-001, 1.75969154e-001,
          7.51317069e-002, 1.26533091e-001, 9.29493681e-002,
          7.15834573e-002, 1.49910569e-001, 8.46714079e-002,
          3.10239166e-001, 3.10239166e-001, 1.32698029e-001,
          5.19345254e-002, 7.34837502e-002, 5.35304658e-002,
          5.82786426e-002, 2.31820405e-001, 3.10239166e-001,
          5.15979566e-002, 5.94037287e-002, 5.94679601e-002,
          4.00739498e-002, 8.78933966e-002, 8.33559558e-002,
          9.59275663e-002, 2.71539956e-001, 1.66149244e-001,
          3.10239166e-001, 1.12089530e-001, 4.87634875e-002,
          3.08808684e-002, 5.12156524e-002, 4.77287397e-002,
          7.26773143e-002, 3.10239166e-001, 3.10239166e-001,
          3.46749157e-001, 1.48070931e-001, 1.58288367e-002,
          5.91335632e-003, 6.34011440e-003, 4.63435473e-003,
          6.80414587e-003, 4.63590138e-002, 3.46749157e-001,
          3.46749157e-001, 4.37584408e-002, 6.58602780e-003,
          1.11289264e-003, 8.90266732e-004, 1.25431921e-003,
          2.84674391e-003, 1.51346615e-002, 3.46749157e-001,
          3.46749157e-001, 4.07774225e-002, 9.34161805e-003,
          5.19368425e-003, 4.69314260e-003, 4.31913091e-003,
          7.79697718e-003, 6.63822815e-002, 3.46749157e-001,
          3.46749157e-001, 3.88449281e-002, 5.26184123e-003,
          1.50587223e-003, 1.96594931e-003, 1.39115821e-003,
          3.70982708e-003, 1.20684933e-002, 3.46749157e-001,
          3.16079646e-001, 1.53776497e-001, 2.43299436e-002,
          5.78057673e-003, 7.11555500e-003, 9.23418626e-003,
          1.94134451e-002, 9.26364735e-002, 3.16079646e-001,
          2.85755783e-001, 2.94122756e-001, 9.93405655e-002,
          3.85350175e-002, 7.49430582e-002, 8.21134150e-002,
          8.85293931e-002, 2.40834951e-001, 3.16079646e-001,
          3.16079646e-001, 1.72031820e-001, 1.81670897e-002,
          4.38811816e-003, 5.49059222e-003, 4.73402720e-003,
          8.35412089e-003, 2.55202744e-002, 2.41750330e-001,
          3.16079646e-001, 3.16079646e-001, 8.45775232e-002,
          2.77780537e-002, 3.60456742e-002, 2.46578418e-002,
          2.04308797e-002, 3.23236324e-002, 7.65851513e-002,
          2.10771382e-001, 1.41909167e-001, 7.65933767e-002,
          5.19571751e-002, 5.52882664e-002, 6.14162460e-002,
          1.21191293e-001, 3.47455621e-001, 3.47455621e-001,
          3.47455621e-001, 1.32267028e-001, 6.25509694e-002,
          4.77632470e-002, 3.82461697e-002, 4.22581807e-002,
          9.79964435e-002, 3.47455621e-001, 3.47455621e-001,
          2.23295406e-001, 1.29396796e-001, 6.68221414e-002,
          4.47188690e-002, 1.09105982e-001, 7.81546757e-002,
          4.73166294e-002, 1.00132741e-001, 1.81123003e-001,
          2.32979327e-001, 1.37063950e-001, 5.99711500e-002,
          3.38830091e-002, 3.77510488e-002, 2.63573732e-002,
          4.64898311e-002, 9.20847356e-002, 1.87062189e-001,
          4.55613375e-001, 7.97740519e-002, 3.88521776e-002,
          2.57880054e-002, 2.21372582e-002, 1.89496856e-002,
          3.70494463e-002, 1.39483124e-001, 4.55613375e-001,
          4.55613375e-001, 1.02855198e-001, 3.14120501e-002,
          1.55532639e-002, 2.48996969e-002, 1.39422407e-002,
          3.41480821e-002, 7.88353905e-002, 4.55613375e-001,
          1.43504113e-001, 9.23193693e-002, 4.97062951e-002,
          2.53339093e-002, 2.70133950e-002, 2.06201281e-002,
          3.45989540e-002, 7.52084032e-002, 1.32330060e-001,
          1.41073719e-001, 8.15277696e-002, 4.41285931e-002,
          2.57803146e-002, 3.40214111e-002, 2.28990540e-002,
          3.93556394e-002, 7.52690807e-002, 1.38168857e-001,
          4.03896391e-001, 2.58000612e-001, 4.93957549e-002,
          2.25555543e-002, 3.55381295e-002, 2.05700193e-002,
          4.16015051e-002, 1.05108202e-001, 4.03896391e-001,
          4.03896391e-001, 4.03896391e-001, 9.93670374e-002,
          4.02925126e-002, 4.06569578e-002, 2.49624494e-002,
          4.51310612e-002, 8.79394636e-002, 2.33075976e-001,
          1.77187130e-001, 1.12543546e-001, 5.79142757e-002,
          3.31152752e-002, 4.65432629e-002, 3.18733007e-002,
          5.12178279e-002, 8.85440111e-002, 1.69668391e-001,
          1.66496217e-001, 1.52788654e-001, 8.43196362e-002,
          3.99980210e-002, 5.31297736e-002, 3.44732963e-002,
          4.53447104e-002, 7.23855272e-002, 1.39869720e-001 ]
      - [ 4.67530042e-002, 3.87009531e-002, 3.53347063e-002,
          2.12347955e-002, 5.13636954e-002, 1.41377933e-002,
          2.28135493e-002, 2.71514561e-002, 3.97124514e-002,
          1.98638156e-001, 7.56246001e-002, 4.16612364e-002,
          1.83640607e-002, 3.76678817e-002, 2.02645771e-002,
          2.78668851e-002, 4.11628000e-002, 8.12060907e-002,
          2.82003194e-001, 4.53671932e-001, 2.47131169e-001,
          1.09326400e-001, 1.46227732e-001, 4.99456301e-002,
          3.18790525e-002, 3.90720032e-002, 5.62042929e-002,
          4.53671932e-001, 4.53671932e-001, 2.07260266e-001,
          7.68994242e-002, 7.53747746e-002, 4.02707420e-002,
          3.35435756e-002, 7.36402795e-002, 2.52906322e-001,
          1.78689957e-001, 3.53736579e-002, 1.65442824e-002,
          8.48462433e-003, 1.35746477e-002, 1.18475100e-002,
          1.50686391e-002, 2.19506938e-002, 7.90793970e-002,
          1.93155318e-001, 2.79568620e-002, 1.27641838e-002,
          8.72679800e-003, 1.56060327e-002, 9.80675220e-003,
          1.55894319e-002, 1.98973734e-002, 1.50536686e-001,
          4.62375015e-001, 2.76005566e-001, 2.68877670e-002,
          1.24496864e-002, 8.65330268e-003, 7.80088734e-003,
          9.07910801e-003, 3.17315385e-002, 4.04721826e-001,
          4.62375015e-001, 7.67654553e-002, 1.13224052e-002,
          5.60091762e-003, 4.64133918e-003, 3.87654663e-003,
          7.20354030e-003, 5.48005626e-002, 4.62375015e-001,
          1.39522716e-001, 3.15148979e-002, 2.12084968e-002,
          1.15589015e-002, 2.17287838e-002, 1.06139835e-002,
          1.82842426e-002, 3.77060696e-002, 2.21679911e-001,
          5.20154759e-002, 3.16374339e-002, 2.57777162e-002,
          1.69076044e-002, 2.92551368e-002, 1.50643205e-002,
          2.07985360e-002, 5.13952300e-002, 1.16268605e-001,
          4.11900133e-001, 9.86847058e-002, 3.60929407e-002,
          1.82076208e-002, 2.30049435e-002, 2.55760569e-002,
          5.38212322e-002, 3.19983065e-001, 4.11900133e-001,
          1.43292889e-001, 8.67347717e-002, 6.56108558e-002,
          4.84387577e-002, 1.17176935e-001, 1.39834911e-001,
          1.91172540e-001, 4.11900133e-001, 4.11900133e-001,
          1.10917397e-001, 2.42807373e-001, 1.56966358e-001,
          9.41684023e-002, 1.67220995e-001, 8.97067264e-002,
          8.28992724e-002, 1.30538002e-001, 7.94176683e-002,
          3.14377278e-001, 3.14377278e-001, 1.35496110e-001,
          6.18582107e-002, 8.48787501e-002, 5.62003292e-002,
          7.03610927e-002, 2.30069593e-001, 3.14377278e-001,
          4.00342979e-002, 4.96970080e-002, 5.14401458e-002,
          4.73507307e-002, 1.05490535e-001, 8.58289674e-002,
          1.08931020e-001, 2.24557653e-001, 1.57561854e-001,
          3.14377278e-001, 1.09475054e-001, 4.45735343e-002,
          2.86347065e-002, 5.37123531e-002, 5.10005355e-002,
          8.70864019e-002, 3.14377278e-001, 3.14377278e-001,
          3.46897691e-001, 1.54010013e-001, 1.68294795e-002,
          6.65072398e-003, 4.68823547e-003, 4.03144723e-003,
          7.21889921e-003, 4.64724898e-002, 3.46897691e-001,
          3.46897691e-001, 5.94229065e-002, 6.53827470e-003,
          1.92869303e-003, 9.53698065e-004, 1.39431329e-003,
          3.51842004e-003, 2.73870546e-002, 3.46897691e-001,
          3.46897691e-001, 3.90029289e-002, 8.96908250e-003,
          3.72509751e-003, 4.04296909e-003, 3.80896451e-003,
          8.40888638e-003, 6.28440678e-002, 3.46897691e-001,
          3.46897691e-001, 5.24515286e-002, 8.29568785e-003,
          3.01133911e-003, 2.56681815e-003, 2.10439926e-003,
          5.00979554e-003, 1.51823889e-002, 3.38771701e-001,
          3.15140933e-001, 2.19297901e-001, 5.30209020e-002,
          1.89860221e-002, 1.73116196e-002, 2.19138712e-002,
          3.67958508e-002, 1.66675553e-001, 3.15140933e-001,
          2.13382632e-001, 2.56656647e-001, 1.38516024e-001,
          6.77117854e-002, 1.18141055e-001, 1.21952981e-001,
          1.11895703e-001, 2.35194102e-001, 2.57738829e-001,
          3.15140933e-001, 2.44540453e-001, 4.46848497e-002,
          1.41860973e-002, 1.11444369e-002, 1.03858048e-002,
          1.31606590e-002, 3.36643867e-002, 1.90947309e-001,
          3.15140933e-001, 3.05924535e-001, 1.24144703e-001,
          4.73094173e-002, 5.46356216e-002, 3.94711085e-002,
          2.37118695e-002, 3.32445540e-002, 5.19406646e-002,
          1.71103239e-001, 1.09577909e-001, 9.67115462e-002,
          7.27208853e-002, 7.83344507e-002, 8.18475038e-002,
          1.28992647e-001, 2.99976110e-001, 3.37771356e-001,
          3.52404356e-001, 9.41103101e-002, 5.25084063e-002,
          3.56348380e-002, 4.65051532e-002, 5.06310165e-002,
          1.07251622e-001, 3.52404356e-001, 3.52404356e-001,
          2.28715658e-001, 1.24464832e-001, 7.67360553e-002,
          5.11370450e-002, 1.62822366e-001, 1.28697202e-001,
          5.56985475e-002, 8.40996429e-002, 1.97394967e-001,
          2.49423385e-001, 1.16943121e-001, 5.67206219e-002,
          2.32008323e-002, 3.83972749e-002, 2.64157206e-002,
          4.54977229e-002, 9.26363692e-002, 2.10567147e-001,
          4.60521221e-001, 6.67647049e-002, 3.80159505e-002,
          2.05813479e-002, 3.14676762e-002, 2.04844680e-002,
          3.49190943e-002, 1.32165581e-001, 4.60521221e-001,
          4.60521221e-001, 1.11880653e-001, 4.63761017e-002,
          2.38858256e-002, 3.14432606e-002, 1.65113881e-002,
          3.75855714e-002, 6.61886260e-002, 4.60521221e-001,
          1.48311764e-001, 8.72827023e-002, 5.32384217e-002,
          2.51145270e-002, 3.88027020e-002, 2.15125978e-002,
          3.60556282e-002, 7.20017776e-002, 1.22311920e-001,
          1.16497055e-001, 8.38796720e-002, 5.07153124e-002,
          2.99597103e-002, 4.28983830e-002, 2.20998470e-002,
          4.24136482e-002, 6.27382547e-002, 9.86451879e-002,
          3.94600749e-001, 3.21247220e-001, 7.78732970e-002,
          4.26842868e-002, 4.99867350e-002, 3.03932708e-002,
          5.45249358e-002, 8.74813199e-002, 3.94600749e-001,
          3.94600749e-001, 3.94600749e-001, 1.21921830e-001,
          5.02865873e-002, 6.53517246e-002, 4.19703946e-002,
          7.27316961e-002, 1.10039711e-001, 2.00415358e-001,
          1.61905155e-001, 1.11755572e-001, 7.43908808e-002,
          4.22806405e-002, 4.89931144e-002, 2.27984861e-002,
          4.98619340e-002, 6.88980967e-002, 1.28838837e-001,
          1.71939000e-001, 1.37473017e-001, 9.15060267e-002,
          4.64214794e-002, 5.22688814e-002, 2.60295700e-002,
          5.71392998e-002, 7.87305459e-002, 1.49844989e-001 ]
      - [ 4.63938005e-002, 3.27413902e-002, 2.11143550e-002,
          7.25736655e-003, 1.93576794e-002, 4.61942656e-003,
          1.30701736e-002, 1.38082588e-002, 2.60199904e-002,
          2.44744509e-001, 8.22129995e-002, 3.36384103e-002,
          1.46118645e-002, 2.48511117e-002, 9.90352966e-003,
          2.37029344e-002, 3.42877768e-002, 8.68226737e-002,
          3.18715334e-001, 4.45971161e-001, 2.67598033e-001,
          8.24201331e-002, 1.05678871e-001, 3.89550738e-002,
          2.53310055e-002, 3.34269553e-002, 4.87001203e-002,
          4.45971161e-001, 4.45971161e-001, 1.77918658e-001,
          4.67451178e-002, 4.70628180e-002, 2.45063696e-002,
          3.58666033e-002, 6.84725121e-002, 2.76213408e-001,
          2.15355739e-001, 3.43561657e-002, 1.81860682e-002,
          8.08086060e-003, 1.42883137e-002, 5.84861496e-003,
          1.15975225e-002, 1.71027184e-002, 9.49104056e-002,
          1.81834310e-001, 1.91087667e-002, 1.67444833e-002,
          9.56878439e-003, 1.57380328e-002, 5.60503546e-003,
          1.02948006e-002, 2.33942065e-002, 1.78614348e-001,
          4.50271189e-001, 2.11078599e-001, 2.23962236e-002,
          5.98247768e-003, 7.48194940e-003, 4.28131036e-003,
          1.00633241e-002, 2.65506562e-002, 4.50271189e-001,
          4.50271189e-001, 5.48106320e-002, 1.50185190e-002,
          7.12274900e-003, 7.87897967e-003, 6.68826280e-003,
          1.50927603e-002, 1.03317507e-001, 4.50271189e-001,
          1.31012678e-001, 2.86043566e-002, 2.50431728e-002,
          1.58326607e-002, 2.06819363e-002, 1.01367524e-002,
          1.92911644e-002, 6.26669079e-002, 2.41583705e-001,
          5.65757528e-002, 3.59586515e-002, 2.98335012e-002,
          1.65681243e-002, 2.42677163e-002, 1.63958240e-002,
          2.71100439e-002, 6.11497983e-002, 9.65626314e-002,
          3.81954879e-001, 1.18746683e-001, 4.84142005e-002,
          2.98104007e-002, 4.37001474e-002, 5.87931648e-002,
          1.36524707e-001, 3.81954879e-001, 3.81954879e-001,
          1.04473546e-001, 8.80327597e-002, 6.61215782e-002,
          5.14267907e-002, 1.26955837e-001, 1.47278160e-001,
          2.44009197e-001, 3.81954879e-001, 3.81954879e-001,
          1.29548088e-001, 2.87091017e-001, 1.90240458e-001,
          8.32653344e-002, 1.43045217e-001, 8.54980275e-002,
          8.99894983e-002, 1.38070554e-001, 1.03759788e-001,
          3.14052910e-001, 3.14052910e-001, 1.27657101e-001,
          4.62190248e-002, 5.63832410e-002, 3.89899053e-002,
          6.30584881e-002, 1.78329498e-001, 3.14052910e-001,
          4.83376198e-002, 5.66354655e-002, 5.34132384e-002,
          4.29214127e-002, 9.18203816e-002, 7.64193535e-002,
          1.19633630e-001, 2.37804323e-001, 2.13641167e-001,
          3.14052910e-001, 9.57365930e-002, 4.09629717e-002,
          2.51308437e-002, 3.85853760e-002, 3.32128145e-002,
          7.29857832e-002, 2.76348382e-001, 3.14052910e-001,
          3.53426307e-001, 1.15977705e-001, 1.35034965e-002,
          4.02980577e-003, 3.94237321e-003, 2.99764401e-003,
          7.14439247e-003, 3.22812684e-002, 3.53426307e-001,
          3.53426307e-001, 7.79476538e-002, 9.60284844e-003,
          3.34094185e-003, 3.23112309e-003, 4.71786968e-003,
          1.03347031e-002, 5.38915917e-002, 3.53426307e-001,
          3.53426307e-001, 3.12876366e-002, 7.40193669e-003,
          3.12996190e-003, 3.82165331e-003, 3.23209725e-003,
          8.29423126e-003, 4.15628739e-002, 3.53426307e-001,
          3.53426307e-001, 7.53175616e-002, 7.90625252e-003,
          2.83019221e-003, 3.34893516e-003, 4.20717383e-003,
          6.36934862e-003, 1.70588661e-002, 2.98561722e-001,
          3.05100441e-001, 3.05100441e-001, 8.49293470e-002,
          3.52993608e-002, 4.68632542e-002, 5.38523681e-002,
          9.24473181e-002, 2.66926020e-001, 3.05100441e-001,
          1.44340575e-001, 2.40395218e-001, 1.48608625e-001,
          8.01827535e-002, 1.46132499e-001, 1.34859204e-001,
          1.43325537e-001, 2.18871489e-001, 1.57188937e-001,
          3.05100441e-001, 3.05100441e-001, 7.10850060e-002,
          2.20795590e-002, 2.20697280e-002, 2.00836398e-002,
          2.14588195e-002, 4.09526266e-002, 1.78765178e-001,
          2.22803861e-001, 2.78726369e-001, 1.35399595e-001,
          5.47826067e-002, 6.31656498e-002, 4.15227041e-002,
          2.37244889e-002, 2.92556994e-002, 4.48467322e-002,
          1.64022550e-001, 1.14602037e-001, 7.33491108e-002,
          5.80074899e-002, 8.71094465e-002, 6.75105080e-002,
          1.50545523e-001, 3.43535006e-001, 3.58461261e-001,
          3.58461261e-001, 1.12289667e-001, 5.48280887e-002,
          3.09990216e-002, 5.76319210e-002, 3.93302254e-002,
          9.32753012e-002, 3.58461261e-001, 3.58461261e-001,
          2.21431315e-001, 1.24448068e-001, 6.29404783e-002,
          3.83160822e-002, 7.65320361e-002, 4.86935265e-002,
          5.60694225e-002, 8.97244886e-002, 1.85246691e-001,
          2.39187628e-001, 1.21892832e-001, 5.08085489e-002,
          1.99642982e-002, 4.10578214e-002, 2.31894441e-002,
          4.16944064e-002, 8.89077932e-002, 2.00213358e-001,
          4.51716810e-001, 8.60672891e-002, 3.77226695e-002,
          1.33796455e-002, 2.30169762e-002, 1.80199258e-002,
          3.76200825e-002, 1.03932895e-001, 4.51716810e-001,
          4.51716810e-001, 1.26376212e-001, 3.89479175e-002,
          1.88905206e-002, 2.81808507e-002, 2.40972023e-002,
          3.52413543e-002, 7.17829168e-002, 4.51716810e-001,
          1.74886927e-001, 1.00561410e-001, 4.62763943e-002,
          1.50923263e-002, 2.48877183e-002, 1.55247096e-002,
          3.22847515e-002, 6.70610666e-002, 1.39429033e-001,
          1.63092956e-001, 1.08399957e-001, 5.75833656e-002,
          2.37735528e-002, 3.19264904e-002, 1.33895837e-002,
          2.56049838e-002, 6.00846857e-002, 1.22462846e-001,
          3.50720793e-001, 3.50720793e-001, 8.26673657e-002,
          3.10327783e-002, 4.74963561e-002, 3.99227180e-002,
          4.43242975e-002, 1.18663937e-001, 3.50720793e-001,
          3.50720793e-001, 3.50720793e-001, 1.25332221e-001,
          4.83636782e-002, 6.52561560e-002, 3.72637585e-002,
          4.56309058e-002, 1.13506190e-001, 2.20705748e-001,
          2.38162413e-001, 1.53076336e-001, 7.70844817e-002,
          3.39675508e-002, 4.72133942e-002, 2.09687650e-002,
          3.26638743e-002, 8.28914195e-002, 1.67665258e-001,
          2.52167642e-001, 1.70016631e-001, 8.13964233e-002,
          3.36354077e-002, 5.54011762e-002, 2.60768738e-002,
          3.97335030e-002, 7.61253312e-002, 1.70484796e-001 ]
      - [ 4.37936820e-002, 2.48571821e-002, 6.11769408e-003,
          1.01811939e-003, 5.84381912e-003, 8.71155586e-004,
          2.34757154e-003, 2.30765110e-003, 1.08266268e-002,
          2.57826239e-001, 5.86730354e-002, 1.44587606e-002,
          4.88026161e-003, 1.67640764e-002, 6.19446672e-003,
          8.14901199e-003, 9.05859470e-003, 6.81114644e-002,
          3.78857434e-001, 4.47187334e-001, 1.80734172e-001,
          6.88687712e-002, 9.65614542e-002, 3.29300798e-002,
          1.39346132e-002, 3.06992326e-002, 5.22628464e-002,
          4.47187334e-001, 4.47187334e-001, 1.09898582e-001,
          2.98458952e-002, 3.93575840e-002, 2.25831717e-002,
          2.14497559e-002, 5.62689826e-002, 3.22084635e-001,
          2.25252360e-001, 2.56282911e-002, 1.06949834e-002,
          3.12475557e-003, 1.39678735e-002, 5.81071852e-003,
          8.70874897e-003, 1.12353098e-002, 1.11294024e-001,
          1.86656862e-001, 2.28966828e-002, 1.09404307e-002,
          4.40196367e-003, 1.43026104e-002, 7.52576301e-003,
          1.41892228e-002, 2.23855171e-002, 2.03629732e-001,
          4.51990575e-001, 1.53045699e-001, 1.38322497e-002,
          3.01955594e-003, 6.74609188e-003, 4.49529989e-003,
          9.48793069e-003, 2.31979843e-002, 4.51990575e-001,
          4.51990575e-001, 6.16768561e-002, 1.15434760e-002,
          2.83282367e-003, 5.45837590e-003, 4.31020744e-003,
          1.15677062e-002, 8.71140063e-002, 4.51990575e-001,
          1.31294146e-001, 3.14346664e-002, 1.73710901e-002,
          9.43981670e-003, 2.00231411e-002, 1.24871014e-002,
          2.09244564e-002, 5.85027710e-002, 2.60342866e-001,
          5.18843010e-002, 3.01653128e-002, 2.58265100e-002,
          1.51767302e-002, 2.54192892e-002, 1.13743767e-002,
          1.85876898e-002, 5.28105944e-002, 9.66525376e-002,
          3.90007377e-001, 1.18880250e-001, 3.78579311e-002,
          2.05264688e-002, 3.54178287e-002, 3.38700674e-002,
          1.07441239e-001, 3.90007377e-001, 3.90007377e-001,
          8.65065381e-002, 7.53005594e-002, 5.39539643e-002,
          5.82742020e-002, 1.23603992e-001, 1.03888080e-001,
          2.27041334e-001, 3.90007377e-001, 3.90007377e-001,
          1.75616682e-001, 2.88402885e-001, 1.18281700e-001,
          7.30680078e-002, 1.31817818e-001, 6.91446513e-002,
          7.62945414e-002, 1.50481477e-001, 1.33392319e-001,
          3.29663396e-001, 3.29663396e-001, 7.10065439e-002,
          2.90353466e-002, 4.22158353e-002, 2.80702002e-002,
          3.94960083e-002, 1.78860143e-001, 3.29663396e-001,
          4.60488163e-002, 3.83139923e-002, 2.48227809e-002,
          2.75673587e-002, 7.63676614e-002, 5.36722429e-002,
          9.77256596e-002, 2.35712022e-001, 2.16917619e-001,
          3.29663396e-001, 7.22311363e-002, 2.26484071e-002,
          1.50971692e-002, 2.62794737e-002, 1.93045549e-002,
          4.71753813e-002, 2.72872478e-001, 3.29663396e-001,
          3.53113502e-001, 8.36913511e-002, 7.97412079e-003,
          1.86798710e-003, 2.97952886e-003, 2.86233379e-003,
          5.13590919e-003, 3.06422077e-002, 3.53113502e-001,
          3.53113502e-001, 7.00495690e-002, 7.49422843e-003,
          1.86564971e-003, 2.21373606e-003, 2.53838021e-003,
          6.65954780e-003, 4.75729182e-002, 3.53113502e-001,
          3.53113502e-001, 3.11277714e-002, 8.07751250e-003,
          3.02721909e-003, 3.75506026e-003, 2.69179652e-003,
          4.79680765e-003, 4.09893729e-002, 3.53113502e-001,
          3.53113502e-001, 6.69774264e-002, 9.13615804e-003,
          3.41866468e-003, 4.17504832e-003, 3.56101897e-003,
          6.43357588e-003, 1.59396473e-002, 3.17228943e-001,
          3.08292121e-001, 2.93516755e-001, 6.19522631e-002,
          2.83950884e-002, 3.74213755e-002, 2.98310183e-002,
          7.14342743e-002, 2.56232023e-001, 3.08292121e-001,
          1.50760949e-001, 2.47632757e-001, 1.08461373e-001,
          9.10460278e-002, 1.49259463e-001, 9.18899924e-002,
          1.36353105e-001, 2.44359210e-001, 1.71839565e-001,
          3.08292121e-001, 3.08292121e-001, 5.09377830e-002,
          1.98388584e-002, 1.95111204e-002, 1.23578617e-002,
          1.99083313e-002, 3.90333086e-002, 1.87222674e-001,
          2.46257186e-001, 2.93648958e-001, 9.60915312e-002,
          6.18894137e-002, 6.69717044e-002, 2.97824703e-002,
          2.53832918e-002, 3.59006040e-002, 5.00496775e-002,
          1.14133984e-001, 6.64388537e-002, 6.39576241e-002,
          3.92169431e-002, 9.03444141e-002, 3.51905860e-002,
          1.35882974e-001, 3.43646884e-001, 3.46955240e-001,
          3.46955240e-001, 1.14780985e-001, 9.83229205e-002,
          6.23493567e-002, 8.53054076e-002, 3.01048439e-002,
          9.95463729e-002, 3.46955240e-001, 3.46955240e-001,
          2.50655472e-001, 1.36124313e-001, 6.50784299e-002,
          3.24965492e-002, 5.03341109e-002, 3.39916945e-002,
          6.38493672e-002, 1.22397974e-001, 2.06709489e-001,
          2.64538854e-001, 1.60567626e-001, 8.97232145e-002,
          4.64234054e-002, 6.28737211e-002, 2.86874808e-002,
          5.47821783e-002, 8.26452374e-002, 1.68735951e-001,
          4.44873959e-001, 1.04510836e-001, 5.94802201e-002,
          3.34114209e-002, 4.26468365e-002, 1.57853495e-002,
          3.75645533e-002, 1.08125806e-001, 4.44873959e-001,
          4.44873959e-001, 1.26820356e-001, 5.63390590e-002,
          3.03169396e-002, 4.09352258e-002, 1.94842853e-002,
          4.07275595e-002, 5.88197932e-002, 4.44873959e-001,
          1.89083353e-001, 1.06583364e-001, 4.77421060e-002,
          2.02798806e-002, 3.39544564e-002, 1.52988005e-002,
          3.97981666e-002, 5.16684987e-002, 1.25768408e-001,
          2.01234952e-001, 9.67210233e-002, 4.10805717e-002,
          2.02350989e-002, 3.20700519e-002, 1.68550946e-002,
          4.11856771e-002, 5.16775064e-002, 1.30073860e-001,
          3.56618553e-001, 3.52068752e-001, 9.45085511e-002,
          3.67548093e-002, 5.22532687e-002, 2.78122742e-002,
          5.90700731e-002, 8.22359771e-002, 3.56618553e-001,
          3.56618553e-001, 3.56618553e-001, 1.16466068e-001,
          5.09626791e-002, 7.20735043e-002, 5.30191101e-002,
          7.07958788e-002, 1.05579227e-001, 1.98452428e-001,
          2.78787911e-001, 1.39615923e-001, 6.46693408e-002,
          3.03491484e-002, 4.51792330e-002, 2.52107177e-002,
          5.13480641e-002, 7.71179795e-002, 1.74066320e-001,
          2.18673408e-001, 1.35889858e-001, 8.08496028e-002,
          4.04151231e-002, 6.07523136e-002, 4.01313566e-002,
          5.90994842e-002, 8.52827728e-002, 1.60092741e-001 ]
      - [ 6.27633184e-002, 2.83417385e-002, 6.13521738e-003,
          1.29400787e-003, 6.66534295e-003, 9.90632107e-004,
          1.60317798e-003, 3.54057993e-003, 1.32878460e-002,
          2.70298094e-001, 3.15173492e-002, 5.92140388e-003,
          1.09012646e-003, 6.83424529e-003, 1.57917954e-003,
          1.72908790e-003, 6.77258568e-003, 7.80817866e-002,
          4.04089749e-001, 4.04089749e-001, 2.26082221e-001,
          5.04260100e-002, 1.08268499e-001, 3.02888751e-002,
          2.86825355e-002, 3.71325947e-002, 8.29089656e-002,
          4.04089749e-001, 4.04089749e-001, 1.04494758e-001,
          1.66906994e-002, 3.34161073e-002, 1.66133381e-002,
          2.66696438e-002, 7.44569674e-002, 4.04089749e-001,
          2.26837084e-001, 1.13922870e-002, 3.39380908e-003,
          6.01158012e-004, 5.31450659e-003, 9.69346147e-004,
          1.56199047e-003, 3.78048816e-003, 9.60708335e-002,
          2.01954931e-001, 2.02612039e-002, 1.21404175e-002,
          4.15986869e-003, 1.58884227e-002, 3.91289592e-003,
          8.69346038e-003, 1.74630824e-002, 2.17664555e-001,
          4.51040030e-001, 8.66554603e-002, 1.58353057e-002,
          2.82656378e-003, 1.09447883e-002, 6.20220555e-003,
          9.74330399e-003, 3.14272866e-002, 4.51040030e-001,
          4.51040030e-001, 7.55518302e-002, 2.52538044e-002,
          4.99406783e-003, 1.20807029e-002, 7.14268815e-003,
          1.86888482e-002, 1.24744169e-001, 4.51040030e-001,
          1.13357686e-001, 2.73034759e-002, 2.01561972e-002,
          7.23721087e-003, 2.13058833e-002, 6.86963834e-003,
          1.82985663e-002, 5.72875813e-002, 2.70745307e-001,
          4.42504697e-002, 2.38038693e-002, 2.21017320e-002,
          1.08416229e-002, 2.56589595e-002, 8.99193622e-003,
          2.11511906e-002, 5.96191809e-002, 1.05953552e-001,
          3.87764424e-001, 9.96194333e-002, 4.21548001e-002,
          2.10008323e-002, 3.92699428e-002, 4.41629924e-002,
          1.04289547e-001, 3.87764424e-001, 3.87764424e-001,
          9.06669497e-002, 5.96639514e-002, 5.27022108e-002,
          5.29216863e-002, 1.50484443e-001, 1.38909623e-001,
          2.18943104e-001, 3.87764424e-001, 3.87764424e-001,
          1.94316983e-001, 2.90863633e-001, 1.69291496e-001,
          5.92313707e-002, 1.66278690e-001, 6.57862350e-002,
          1.10486895e-001, 1.85804442e-001, 1.58837184e-001,
          3.18809450e-001, 2.98336804e-001, 7.84575269e-002,
          1.99580714e-002, 4.04783599e-002, 2.75940392e-002,
          5.73131964e-002, 1.89054623e-001, 3.18809450e-001,
          4.28325646e-002, 3.11870333e-002, 2.69665904e-002,
          1.85837653e-002, 8.17111433e-002, 4.29693237e-002,
          1.08665109e-001, 2.52570271e-001, 2.39943266e-001,
          3.09869498e-001, 4.98431437e-002, 1.78114921e-002,
          8.23232997e-003, 2.32632998e-002, 1.70080476e-002,
          4.75195497e-002, 2.21118331e-001, 3.18809450e-001,
          3.47798467e-001, 5.60665689e-002, 9.22593195e-003,
          1.77826383e-003, 5.15519688e-003, 3.20744910e-003,
          6.26922073e-003, 3.17383744e-002, 3.47798467e-001,
          3.47798467e-001, 8.74593034e-002, 1.78757962e-002,
          4.06904984e-003, 4.70793853e-003, 4.01001563e-003,
          1.16691003e-002, 7.33322129e-002, 3.47798467e-001,
          3.47798467e-001, 3.33128385e-002, 7.98402168e-003,
          3.89027945e-003, 6.50460180e-003, 3.11027654e-003,
          4.93899407e-003, 3.00398003e-002, 3.47798467e-001,
          3.47798467e-001, 8.86021256e-002, 1.70851853e-002,
          6.68745954e-003, 7.32696149e-003, 4.72054118e-003,
          7.43857492e-003, 2.18328089e-002, 3.47798467e-001,
          2.98996121e-001, 2.53360301e-001, 7.20732808e-002,
          3.39256488e-002, 4.36582081e-002, 4.31232788e-002,
          7.48221725e-002, 2.85890669e-001, 2.98996121e-001,
          1.57860741e-001, 2.22866789e-001, 1.39060616e-001,
          8.98140892e-002, 1.83884025e-001, 1.26595184e-001,
          1.36137843e-001, 2.66109318e-001, 1.78516969e-001,
          2.98996121e-001, 2.82203197e-001, 5.90366051e-002,
          2.22606380e-002, 2.13567000e-002, 1.52459806e-002,
          1.97912548e-002, 4.20889221e-002, 1.88205540e-001,
          2.50462711e-001, 2.83643484e-001, 1.27576947e-001,
          5.81164248e-002, 7.33036920e-002, 3.32337581e-002,
          2.17255112e-002, 3.02285962e-002, 3.92070524e-002,
          1.33843318e-001, 2.99239550e-002, 1.63748916e-002,
          4.27813968e-003, 2.65427846e-002, 7.64277438e-003,
          8.43239203e-002, 2.98150599e-001, 3.52114797e-001,
          3.52114797e-001, 7.10904673e-002, 4.15300280e-002,
          1.90133844e-002, 5.22890165e-002, 1.22446194e-002,
          4.47546393e-002, 2.49477983e-001, 3.52114797e-001,
          3.21083814e-001, 1.21147580e-001, 4.68209423e-002,
          1.71903055e-002, 2.01595426e-002, 1.65989902e-002,
          3.90970595e-002, 1.02725133e-001, 2.81759560e-001,
          2.95561969e-001, 1.37352601e-001, 7.37912655e-002,
          3.62250768e-002, 3.92841436e-002, 1.98585521e-002,
          4.30320501e-002, 1.40959516e-001, 2.92144030e-001,
          4.24426883e-001, 1.00921042e-001, 7.21680447e-002,
          5.77805974e-002, 7.84654245e-002, 2.50598267e-002,
          2.89512109e-002, 6.24501631e-002, 4.24426883e-001,
          4.24426883e-001, 1.85047403e-001, 1.13351732e-001,
          8.24358910e-002, 9.26184356e-002, 4.43483442e-002,
          5.09622768e-002, 7.32215866e-002, 4.24426883e-001,
          1.74896404e-001, 1.12548366e-001, 8.60477239e-002,
          7.04498217e-002, 6.80823177e-002, 1.89677067e-002,
          3.35575715e-002, 7.12041557e-002, 1.38248906e-001,
          1.46679446e-001, 1.33884206e-001, 1.07036538e-001,
          8.75773802e-002, 1.06627114e-001, 3.74317691e-002,
          4.27987203e-002, 5.71287535e-002, 1.01008244e-001,
          3.68833661e-001, 3.68833661e-001, 1.25994861e-001,
          5.92081361e-002, 8.34522024e-002, 4.42280360e-002,
          6.68001994e-002, 1.00263767e-001, 3.68833661e-001,
          3.68833661e-001, 3.68833661e-001, 1.51272491e-001,
          4.97184880e-002, 7.17623234e-002, 4.35706042e-002,
          6.21803552e-002, 9.46531594e-002, 1.89771906e-001,
          1.60094857e-001, 1.38743415e-001, 9.43059921e-002,
          5.25283851e-002, 1.05634391e-001, 4.84807119e-002,
          6.20067976e-002, 7.40369037e-002, 1.23773888e-001,
          1.71111405e-001, 1.33349955e-001, 9.03335586e-002,
          3.80749069e-002, 8.59512165e-002, 4.35476042e-002,
          6.78292066e-002, 8.65893215e-002, 1.39008865e-001 ]
      - [ 4.88037057e-002, 2.97594052e-002, 2.00485974e-003,
          2.08933241e-004, 4.65865061e-003, 3.86060769e-004,
          1.28043699e-003, 9.55644355e-004, 7.72354426e-003,
          2.43636176e-001, 4.22723703e-002, 2.22368864e-003,
          4.69095045e-004, 7.00515229e-003, 8.56167870e-004,
          2.08412204e-003, 5.25652198e-003, 7.74187446e-002,
          3.94806325e-001, 4.15402263e-001, 2.02309519e-001,
          5.94594814e-002, 9.99516025e-002, 4.30224687e-002,
          3.29614878e-002, 3.35623771e-002, 5.78725561e-002,
          4.15402263e-001, 4.15402263e-001, 9.56441239e-002,
          2.85151135e-002, 4.05536219e-002, 2.64587943e-002,
          3.25352512e-002, 7.65215605e-002, 4.13076043e-001,
          2.12394610e-001, 1.12300571e-002, 1.36772241e-003,
          7.87110243e-004, 2.53122556e-003, 3.40491679e-004,
          1.38131774e-003, 4.53207595e-003, 1.16936296e-001,
          1.93019137e-001, 1.35859530e-002, 4.68658097e-003,
          2.02633929e-003, 5.81999682e-003, 2.13489519e-003,
          2.98219663e-003, 7.41757080e-003, 1.95227996e-001,
          4.52400684e-001, 1.25240967e-001, 9.03445017e-003,
          2.99825263e-003, 7.61591177e-003, 4.38442780e-003,
          1.12886550e-002, 4.19485904e-002, 4.52400684e-001,
          4.52400684e-001, 8.44550952e-002, 1.81506388e-002,
          3.51444143e-003, 7.00609898e-003, 5.80527773e-003,
          1.37851359e-002, 1.29234686e-001, 4.52400684e-001,
          1.24213129e-001, 2.70436555e-002, 1.50220226e-002,
          7.53161497e-003, 1.75926574e-002, 6.84458762e-003,
          1.12189054e-002, 4.11253795e-002, 2.42711052e-001,
          5.79436719e-002, 3.68661880e-002, 2.53707990e-002,
          1.36265503e-002, 2.57583689e-002, 1.00761056e-002,
          2.18220688e-002, 5.88235147e-002, 1.11303717e-001,
          3.76478434e-001, 1.24412492e-001, 5.54361530e-002,
          2.18161624e-002, 3.98123525e-002, 4.25673127e-002,
          1.12055793e-001, 3.76478434e-001, 3.76478434e-001,
          1.26417771e-001, 8.29207003e-002, 7.98515752e-002,
          5.77735789e-002, 1.86183617e-001, 1.27252638e-001,
          2.62655437e-001, 3.76478434e-001, 3.76478434e-001,
          2.06856966e-001, 3.13468784e-001, 1.60305917e-001,
          6.98605105e-002, 1.61004245e-001, 8.68919119e-002,
          1.11470111e-001, 1.78092971e-001, 1.37070477e-001,
          3.17233562e-001, 3.17233562e-001, 7.97718540e-002,
          3.53694558e-002, 5.28287627e-002, 4.34506945e-002,
          6.00876212e-002, 2.16713071e-001, 3.17233562e-001,
          4.57018949e-002, 3.29233371e-002, 2.59733535e-002,
          2.00339220e-002, 7.82381892e-002, 4.92044538e-002,
          9.86296684e-002, 2.27226555e-001, 2.01368764e-001,
          2.84424901e-001, 4.85819876e-002, 1.82737019e-002,
          1.24639748e-002, 2.82318071e-002, 2.30940562e-002,
          4.52361219e-002, 2.48102590e-001, 3.17233562e-001,
          3.46053213e-001, 7.49269947e-002, 7.85841420e-003,
          2.74872780e-003, 5.77704981e-003, 3.73758795e-003,
          7.21275248e-003, 4.25805263e-002, 3.46053213e-001,
          3.46053213e-001, 1.03941128e-001, 2.01983843e-002,
          4.33770148e-003, 5.30826580e-003, 3.42954299e-003,
          1.05412640e-002, 8.12721029e-002, 3.46053213e-001,
          3.46053213e-001, 2.16759909e-002, 7.29377149e-003,
          2.52990564e-003, 5.19856298e-003, 1.82313146e-003,
          4.81913704e-003, 3.85969840e-002, 3.46053213e-001,
          3.46053213e-001, 9.82298851e-002, 2.20233202e-002,
          7.57991336e-003, 7.79136829e-003, 2.77104299e-003,
          7.49182981e-003, 2.34206207e-002, 3.46053213e-001,
          2.78822839e-001, 2.70814180e-001, 9.40094143e-002,
          2.98204422e-002, 4.23404872e-002, 3.80575210e-002,
          7.97240734e-002, 2.78822839e-001, 2.78822839e-001,
          1.65240258e-001, 2.39634037e-001, 1.63150504e-001,
          8.76852944e-002, 2.14042827e-001, 1.05806142e-001,
          1.59916952e-001, 2.66239494e-001, 1.61988452e-001,
          2.78822839e-001, 2.78822839e-001, 7.35155940e-002,
          2.26374231e-002, 2.20846441e-002, 1.43238250e-002,
          2.11677961e-002, 4.28558290e-002, 1.96803495e-001,
          2.40621418e-001, 2.78822839e-001, 1.37678191e-001,
          5.62339909e-002, 8.37152377e-002, 3.01455818e-002,
          2.91909631e-002, 3.39346007e-002, 4.23215777e-002,
          9.40334350e-002, 1.47588821e-002, 1.66934989e-002,
          5.03917085e-003, 3.92789021e-002, 7.29940552e-003,
          6.31152019e-002, 2.86331385e-001, 3.42054069e-001,
          3.42054069e-001, 2.82529369e-002, 2.26916000e-002,
          6.94498233e-003, 3.64393368e-002, 7.34708551e-003,
          3.34744006e-002, 2.91360289e-001, 3.42054069e-001,
          3.42054069e-001, 1.05428725e-001, 2.19977424e-002,
          4.30263346e-003, 1.75191816e-002, 6.39546197e-003,
          2.31518932e-002, 7.84425884e-002, 3.34321886e-001,
          3.33437800e-001, 1.14211664e-001, 4.21057269e-002,
          1.50409574e-002, 2.78729554e-002, 2.02630833e-002,
          4.12851572e-002, 9.05683339e-002, 2.74134964e-001,
          4.23073441e-001, 5.47419228e-002, 4.69504669e-002,
          1.91428233e-002, 4.22939323e-002, 8.23988393e-003,
          1.45562524e-002, 6.15587309e-002, 4.23073441e-001,
          4.23073441e-001, 2.05567554e-001, 1.45115986e-001,
          8.92673805e-002, 1.01730891e-001, 3.38236876e-002,
          4.19082455e-002, 8.08840320e-002, 4.23073441e-001,
          1.67636245e-001, 8.88631344e-002, 6.73252270e-002,
          3.05382144e-002, 4.53182049e-002, 2.07912643e-002,
          3.22811976e-002, 6.20742068e-002, 1.37337461e-001,
          1.29660532e-001, 1.56621486e-001, 1.67238250e-001,
          1.12738512e-001, 1.17114820e-001, 4.37350832e-002,
          3.85228619e-002, 4.62761298e-002, 9.12422687e-002,
          3.38950962e-001, 3.38950962e-001, 1.75940558e-001,
          9.56278443e-002, 9.49066430e-002, 5.11667430e-002,
          6.48943037e-002, 9.76451263e-002, 3.38950962e-001,
          3.38950962e-001, 3.38950962e-001, 2.01252878e-001,
          8.81591514e-002, 8.22981223e-002, 5.08896187e-002,
          7.41305575e-002, 9.90702286e-002, 1.62776232e-001,
          1.36468098e-001, 1.71857715e-001, 1.66852653e-001,
          1.14200436e-001, 1.14415661e-001, 5.05113862e-002,
          5.37464842e-002, 5.58874831e-002, 9.03572291e-002,
          1.80200547e-001, 2.08777040e-001, 1.38287097e-001,
          8.52862149e-002, 8.58913660e-002, 4.14612740e-002,
          6.46121278e-002, 8.37126598e-002, 1.25158638e-001 ]
      - [ 5.87276928e-002, 2.57651005e-002, 1.96522009e-003,
          3.28776834e-004, 2.59782304e-003, 1.57854811e-004,
          9.96147981e-004, 7.33800931e-004, 7.71898637e-003,
          2.30963051e-001, 2.72378046e-002, 2.62717460e-003,
          4.10407432e-004, 3.70735372e-003, 2.59582594e-004,
          1.80630677e-003, 1.88649434e-003, 6.44015148e-002,
          4.25773621e-001, 4.25773621e-001, 1.64528713e-001,
          5.66026308e-002, 5.88083565e-002, 3.78937460e-002,
          1.90632734e-002, 4.01681326e-002, 8.80952924e-002,
          4.25773621e-001, 4.25773621e-001, 5.34604006e-002,
          1.37904100e-002, 1.32066095e-002, 9.39985923e-003,
          1.81477349e-002, 4.35623080e-002, 3.97145748e-001,
          2.08302945e-001, 5.55010047e-003, 1.54963485e-003,
          5.20228699e-004, 2.76569766e-003, 3.98655335e-004,
          1.13476533e-003, 2.07103649e-003, 1.27846986e-001,
          1.36607006e-001, 2.59349938e-003, 1.04305043e-003,
          8.05163407e-004, 3.75717832e-003, 5.61336521e-004,
          9.48399771e-004, 8.53531901e-003, 2.13179737e-001,
          4.61652339e-001, 6.73437193e-002, 5.99928387e-003,
          1.61052775e-003, 5.10662841e-003, 1.79048383e-003,
          7.43704662e-003, 1.97651926e-002, 4.61652339e-001,
          4.61652339e-001, 2.64726561e-002, 8.20081402e-003,
          3.90003668e-003, 7.84652028e-003, 3.67719284e-003,
          1.33686010e-002, 1.13250799e-001, 4.61652339e-001,
          7.21230060e-002, 4.35430463e-003, 2.28761137e-003,
          8.20624758e-004, 7.20283249e-003, 7.85302953e-004,
          3.42518487e-003, 4.18686867e-002, 2.47296005e-001,
          1.73256192e-002, 8.23262893e-003, 8.22196994e-003,
          4.20647254e-003, 2.26472821e-002, 4.51224297e-003,
          1.25733130e-002, 3.68107557e-002, 6.08595163e-002,
          3.92366379e-001, 7.98430368e-002, 4.17058952e-002,
          2.92894039e-002, 6.19257353e-002, 3.41999680e-002,
          1.45567358e-001, 3.92366379e-001, 3.92366379e-001,
          7.17218965e-002, 5.19800931e-002, 5.54502085e-002,
          5.14230989e-002, 1.71883002e-001, 8.94843191e-002,
          2.74854660e-001, 3.92366379e-001, 3.79531562e-001,
          3.20783049e-001, 3.20783049e-001, 1.40969858e-001,
          6.71882555e-002, 9.81422812e-002, 8.77887458e-002,
          8.21381509e-002, 1.81161806e-001, 1.83891520e-001,
          3.20783049e-001, 3.20783049e-001, 5.06295860e-002,
          1.92443933e-002, 1.66704431e-002, 2.03991961e-002,
          4.04358432e-002, 1.49598777e-001, 3.20783049e-001,
          6.26915693e-002, 3.87716256e-002, 2.21577697e-002,
          1.89537574e-002, 4.73223925e-002, 5.25630750e-002,
          8.10657144e-002, 2.21077368e-001, 2.31854543e-001,
          2.88062543e-001, 4.72515933e-002, 1.41360564e-002,
          8.80726054e-003, 1.22537026e-002, 1.30193867e-002,
          3.27164643e-002, 1.71067923e-001, 3.20783049e-001,
          3.51648718e-001, 4.93203327e-002, 6.09216467e-003,
          1.81435351e-003, 4.07075137e-003, 2.16907961e-003,
          6.81253430e-003, 2.69248988e-002, 3.51648718e-001,
          3.51648718e-001, 7.69789591e-002, 1.64202191e-002,
          5.92098432e-003, 6.84862770e-003, 3.64324683e-003,
          1.22180888e-002, 7.73282722e-002, 3.51648718e-001,
          3.51648718e-001, 1.44707914e-002, 5.83939441e-003,
          2.48476677e-003, 5.17621683e-003, 1.93318259e-003,
          4.37505310e-003, 2.49887295e-002, 3.51648718e-001,
          3.51648718e-001, 8.08043629e-002, 1.37450565e-002,
          4.16153995e-003, 6.41226163e-003, 1.72334828e-003,
          4.71852813e-003, 1.46197323e-002, 3.27512294e-001,
          2.86152989e-001, 2.86152989e-001, 9.55053270e-002,
          5.14694341e-002, 8.18232596e-002, 3.56750749e-002,
          1.05573423e-001, 2.86152989e-001, 2.86152989e-001,
          1.19013228e-001, 2.23989561e-001, 1.37333557e-001,
          9.09080058e-002, 2.32704684e-001, 8.70664641e-002,
          1.77130878e-001, 2.51776725e-001, 1.52903900e-001,
          2.86152989e-001, 2.86152989e-001, 7.58731887e-002,
          3.03942971e-002, 4.44726571e-002, 1.36168068e-002,
          2.11919658e-002, 4.31196392e-002, 1.92050114e-001,
          1.89423025e-001, 2.86152989e-001, 1.27816990e-001,
          6.43391460e-002, 1.14576817e-001, 2.91939676e-002,
          2.62549110e-002, 3.05281170e-002, 4.16973345e-002,
          1.01785943e-001, 1.21250404e-002, 6.83657359e-003,
          6.14544889e-003, 1.93235260e-002, 4.82050097e-003,
          8.20438042e-002, 3.25182527e-001, 3.67311656e-001,
          3.67311656e-001, 2.68689226e-002, 1.56636927e-002,
          8.11239053e-003, 2.99886800e-002, 7.00266706e-003,
          2.97033228e-002, 2.36681387e-001, 3.67311656e-001,
          2.99687684e-001, 8.43526125e-002, 3.28601301e-002,
          1.22249629e-002, 9.02687944e-003, 3.88701377e-003,
          1.59623437e-002, 5.70522808e-002, 2.66394138e-001,
          3.67311656e-001, 9.86165479e-002, 3.23959328e-002,
          1.32729290e-002, 1.61470901e-002, 7.41508044e-003,
          1.54943904e-002, 6.07418120e-002, 2.93918163e-001,
          4.20749009e-001, 2.43720207e-002, 1.79243963e-002,
          6.32562535e-003, 2.14643106e-002, 3.70479003e-003,
          7.59181287e-003, 3.86622883e-002, 4.20749009e-001,
          4.20749009e-001, 1.05268627e-001, 3.79255861e-002,
          1.17649119e-002, 2.94861645e-002, 4.74096974e-003,
          1.64953694e-002, 2.04126444e-002, 4.20749009e-001,
          2.79756039e-001, 8.26973617e-002, 3.07670925e-002,
          6.87965611e-003, 1.53165329e-002, 8.76894221e-003,
          1.84123628e-002, 5.03252149e-002, 2.08451271e-001,
          2.61971176e-001, 1.18698053e-001, 7.48950541e-002,
          2.17500534e-002, 2.29016524e-002, 8.02906230e-003,
          2.62552556e-002, 4.94053960e-002, 2.12617517e-001,
          3.05379719e-001, 3.05379719e-001, 1.07213534e-001,
          3.88145708e-002, 8.30939785e-002, 2.51893122e-002,
          4.05480079e-002, 4.36696447e-002, 3.05379719e-001,
          3.05379719e-001, 3.05379719e-001, 2.14183435e-001,
          1.03566401e-001, 1.43840656e-001, 5.07517271e-002,
          4.85103689e-002, 6.78373426e-002, 1.41564220e-001,
          2.48344883e-001, 2.30409816e-001, 1.57335311e-001,
          5.10008484e-002, 4.74441946e-002, 1.46182831e-002,
          3.10995020e-002, 5.31759597e-002, 1.54653847e-001,
          2.25990489e-001, 2.95870602e-001, 2.13044584e-001,
          7.83665627e-002, 9.34194997e-002, 4.91192527e-002,
          5.67028970e-002, 7.96425715e-002, 1.28747895e-001 ]
      - [ 6.42483830e-002, 2.61375122e-002, 3.56839434e-003,
          2.49987561e-003, 4.96540591e-003, 2.34289258e-003,
          2.80689145e-003, 4.37840354e-003, 1.59932021e-002,
          2.22872853e-001, 2.95733176e-002, 3.48280603e-003,
          2.01194314e-003, 3.26237618e-003, 1.24878820e-003,
          2.61171139e-003, 4.22827341e-003, 6.95397779e-002,
          4.07979459e-001, 4.07979459e-001, 2.46565253e-001,
          9.50689837e-002, 1.13223158e-001, 4.25515138e-002,
          3.32802609e-002, 4.59559187e-002, 7.07486272e-002,
          4.07979459e-001, 4.07979459e-001, 1.12654224e-001,
          3.03507280e-002, 2.72994451e-002, 1.55153926e-002,
          2.35555787e-002, 5.94335794e-002, 3.97723198e-001,
          2.04488367e-001, 1.00445645e-002, 1.83713518e-003,
          8.32133868e-004, 2.07929360e-003, 3.51168652e-004,
          1.60101557e-003, 4.20965068e-003, 1.24031261e-001,
          1.32393092e-001, 7.59285036e-003, 1.53856678e-003,
          8.79586616e-004, 3.23791616e-003, 5.14668995e-004,
          1.87253789e-003, 1.34548834e-002, 1.95352957e-001,
          4.60348278e-001, 1.17463298e-001, 1.55714210e-002,
          2.13324931e-003, 3.60236410e-003, 1.41980813e-003,
          4.72389627e-003, 3.45816724e-002, 4.60348278e-001,
          4.60348278e-001, 4.82079983e-002, 9.78463609e-003,
          2.58114631e-003, 6.72002696e-003, 5.45980362e-003,
          1.60301346e-002, 1.28092989e-001, 4.60348278e-001,
          7.05360994e-002, 6.72852015e-003, 2.41950643e-003,
          7.78627233e-004, 4.71134391e-003, 1.46465993e-003,
          5.26145706e-003, 4.31894660e-002, 2.28111312e-001,
          1.32552618e-002, 4.05235775e-003, 2.89130886e-003,
          5.19506109e-004, 4.26655076e-003, 1.35852781e-003,
          7.46657280e-003, 2.98108645e-002, 5.27315736e-002,
          3.94664735e-001, 7.17858672e-002, 3.45577970e-002,
          1.59925595e-002, 4.83216159e-002, 5.05574271e-002,
          1.59248799e-001, 3.94664735e-001, 3.94664735e-001,
          6.90538660e-002, 4.35638987e-002, 3.61657813e-002,
          3.01412605e-002, 1.44311547e-001, 9.74365175e-002,
          2.80834556e-001, 3.94664735e-001, 3.93911421e-001,
          2.06773609e-001, 2.88487345e-001, 1.76435128e-001,
          9.67317596e-002, 1.63121149e-001, 8.04142058e-002,
          1.17467239e-001, 2.06010401e-001, 1.36343852e-001,
          2.88487345e-001, 2.88487345e-001, 8.82466137e-002,
          3.31956483e-002, 3.65238860e-002, 2.49674488e-002,
          5.49083501e-002, 1.97800666e-001, 2.88487345e-001,
          4.61338535e-002, 4.56165001e-002, 3.89723144e-002,
          3.65597643e-002, 9.12064016e-002, 6.17593341e-002,
          1.22914009e-001, 2.88487345e-001, 2.48086736e-001,
          2.87355661e-001, 6.16596304e-002, 2.72490382e-002,
          1.97319146e-002, 2.51841191e-002, 1.90094002e-002,
          5.31466492e-002, 2.57790744e-001, 2.88487345e-001,
          3.53900701e-001, 8.39053243e-002, 1.28713390e-002,
          3.85363004e-003, 2.88426504e-003, 2.23533087e-003,
          6.51050359e-003, 5.19713052e-002, 3.53900701e-001,
          3.53900701e-001, 6.29001111e-002, 1.30822817e-002,
          3.82769713e-003, 4.27034684e-003, 6.70286920e-003,
          1.55372862e-002, 8.12343657e-002, 3.53900701e-001,
          3.53900701e-001, 3.13124806e-002, 8.38486850e-003,
          7.45894294e-003, 5.72466524e-003, 3.61210434e-003,
          1.07924743e-002, 5.82851768e-002, 3.53900701e-001,
          3.53900701e-001, 6.13764226e-002, 1.00218561e-002,
          4.05875547e-003, 3.45214969e-003, 3.52946250e-003,
          8.05765856e-003, 2.24468578e-002, 2.99296021e-001,
          2.93803304e-001, 2.40365162e-001, 8.94179791e-002,
          3.42500918e-002, 6.89047873e-002, 6.78268820e-002,
          1.49549395e-001, 2.93803304e-001, 2.93803304e-001,
          1.20228082e-001, 1.91256672e-001, 1.21121950e-001,
          7.04296529e-002, 2.27937415e-001, 1.19510680e-001,
          2.34426290e-001, 2.93803304e-001, 2.05362052e-001,
          2.93803304e-001, 2.73244321e-001, 7.27899596e-002,
          2.31028274e-002, 3.18971239e-002, 2.37082429e-002,
          3.50258276e-002, 5.51069491e-002, 2.02589288e-001,
          1.51787385e-001, 2.26594776e-001, 1.11924209e-001,
          4.58541662e-002, 9.89119112e-002, 3.45171094e-002,
          4.13503610e-002, 3.53929214e-002, 4.94038351e-002,
          1.50688782e-001, 8.74991938e-002, 6.35576174e-002,
          5.93648180e-002, 8.94408301e-002, 5.99755719e-002,
          1.70751855e-001, 3.83348793e-001, 3.83348793e-001,
          3.83348793e-001, 8.82934704e-002, 5.67229800e-002,
          6.75156265e-002, 8.81875902e-002, 5.80070689e-002,
          1.18448026e-001, 3.83348793e-001, 3.83348793e-001,
          1.05791122e-001, 5.79765737e-002, 5.27175367e-002,
          4.65876088e-002, 8.50552395e-002, 6.02914505e-002,
          8.77351314e-002, 1.15666121e-001, 1.24977879e-001,
          9.40601006e-002, 4.24074158e-002, 3.85293551e-002,
          4.70961966e-002, 9.43382606e-002, 7.29988962e-002,
          1.10381268e-001, 1.26684919e-001, 1.34491369e-001,
          4.68104661e-001, 7.09792003e-002, 3.82559523e-002,
          4.60509770e-002, 6.84824511e-002, 3.50781828e-002,
          6.89128935e-002, 1.34947896e-001, 4.68104661e-001,
          4.68104661e-001, 8.28072876e-002, 1.34866070e-002,
          9.80943069e-003, 1.72572304e-002, 8.07239860e-003,
          1.76046435e-002, 3.68195921e-002, 4.68104661e-001,
          7.12848231e-002, 3.38853188e-002, 2.95293760e-002,
          3.25575434e-002, 8.39231387e-002, 5.48277386e-002,
          9.97247174e-002, 1.06923424e-001, 1.14511199e-001,
          7.77234435e-002, 2.97798887e-002, 1.20221106e-002,
          5.92630729e-003, 2.38511842e-002, 9.76062752e-003,
          2.75753792e-002, 4.28041071e-002, 9.54187587e-002,
          3.91059160e-001, 3.91059160e-001, 6.37336075e-002,
          1.99864227e-002, 3.43206786e-002, 1.14081558e-002,
          2.16749664e-002, 3.87707427e-002, 3.91059160e-001,
          3.76365513e-001, 3.78342658e-001, 1.13768771e-001,
          1.71846766e-002, 5.25726452e-002, 6.53655874e-003,
          2.52282601e-002, 2.91376077e-002, 1.01178974e-001,
          2.02598795e-001, 7.29768425e-002, 2.18295604e-002,
          3.76716838e-003, 2.08980404e-002, 2.52374401e-003,
          1.22700632e-002, 4.09855545e-002, 2.02823296e-001,
          2.57242054e-001, 7.90608674e-002, 2.47804970e-002,
          9.72844567e-003, 2.45962907e-002, 2.92358757e-003,
          1.05521670e-002, 3.40882540e-002, 2.27406710e-001 ]
      - [ 9.77056548e-002, 4.64862436e-002, 1.42255817e-002,
          6.34716963e-003, 1.64915211e-002, 5.20128664e-003,
          1.28315408e-002, 1.46947838e-002, 4.24720570e-002,
          2.47315675e-001, 4.17622738e-002, 1.27461897e-002,
          6.10646559e-003, 1.24598043e-002, 6.92624226e-003,
          1.31884264e-002, 1.56681258e-002, 1.18242800e-001,
          4.00691986e-001, 4.00691986e-001, 2.25808367e-001,
          7.90979192e-002, 1.12349689e-001, 3.56986597e-002,
          3.85463387e-002, 5.85504062e-002, 1.13726713e-001,
          4.00691986e-001, 4.00691986e-001, 6.61620870e-002,
          2.05613691e-002, 2.08924189e-002, 1.53066283e-002,
          2.78765839e-002, 7.64315650e-002, 4.00691986e-001,
          2.15586051e-001, 1.26414830e-002, 5.45495749e-003,
          2.93759140e-003, 1.13419052e-002, 5.08433208e-003,
          9.30967648e-003, 1.49744377e-002, 1.94320068e-001,
          8.88315216e-002, 3.96131445e-003, 2.74540763e-003,
          1.74550537e-003, 8.46849754e-003, 1.11090287e-003,
          3.37909302e-003, 1.83450729e-002, 2.01418042e-001,
          4.52075332e-001, 1.04733989e-001, 1.55929439e-002,
          9.19657480e-003, 9.90383420e-003, 9.18804575e-003,
          1.74811091e-002, 7.19795004e-002, 4.52075332e-001,
          4.52075332e-001, 3.84803936e-002, 1.72175393e-002,
          1.40153198e-002, 1.37291355e-002, 1.04358848e-002,
          2.63173319e-002, 1.55748844e-001, 4.52075332e-001,
          6.56641349e-002, 5.71695995e-003, 5.29875327e-003,
          2.79003754e-003, 1.46804443e-002, 1.56555686e-003,
          6.38434337e-003, 4.91252430e-002, 2.49228880e-001,
          2.73112208e-002, 4.80926456e-003, 6.69499487e-003,
          1.82558061e-003, 1.67740099e-002, 1.97400688e-003,
          1.24765141e-002, 3.22085172e-002, 5.86902536e-002,
          3.90914470e-001, 8.90126899e-002, 4.27183770e-002,
          4.64657024e-002, 5.95193654e-002, 5.43072708e-002,
          1.61707878e-001, 4.07712907e-001, 4.07712907e-001,
          7.07396045e-002, 4.53735627e-002, 3.47709768e-002,
          8.28009844e-002, 1.32336348e-001, 9.23201591e-002,
          2.42878348e-001, 4.07712907e-001, 3.53290260e-001,
          2.24274784e-001, 2.99238920e-001, 1.56947970e-001,
          7.88577572e-002, 1.49649486e-001, 7.26852268e-002,
          1.13482617e-001, 2.32851788e-001, 1.67859197e-001,
          2.99238920e-001, 2.47696683e-001, 4.97696847e-002,
          2.15779971e-002, 2.24882010e-002, 1.96039043e-002,
          4.83848788e-002, 1.95736110e-001, 2.99238920e-001,
          5.41513599e-002, 3.76682393e-002, 3.41207720e-002,
          3.02739628e-002, 7.08097965e-002, 5.52359968e-002,
          1.15340285e-001, 2.99238920e-001, 2.75921077e-001,
          2.73417562e-001, 4.18228209e-002, 1.65569726e-002,
          1.10299243e-002, 1.41997328e-002, 1.46520324e-002,
          4.48457599e-002, 2.36821055e-001, 2.99238920e-001,
          3.47539693e-001, 6.15422875e-002, 8.13372899e-003,
          4.10017790e-003, 2.99343606e-003, 6.21260516e-003,
          1.47639653e-002, 6.17449917e-002, 3.47539693e-001,
          3.47539693e-001, 5.02975024e-002, 1.28989965e-002,
          8.19790643e-003, 4.89506964e-003, 8.80475901e-003,
          1.95748862e-002, 8.42619464e-002, 3.47539693e-001,
          3.47539693e-001, 3.23343799e-002, 7.01624714e-003,
          4.17332351e-003, 4.50165709e-003, 8.49060528e-003,
          2.03576554e-002, 6.10025339e-002, 3.47539693e-001,
          3.47539693e-001, 6.30197227e-002, 1.10103702e-002,
          4.81882552e-003, 3.59719060e-003, 9.52375028e-003,
          1.79962963e-002, 4.55689356e-002, 3.47539693e-001,
          2.97502160e-001, 2.44762301e-001, 7.89897367e-002,
          6.14498593e-002, 5.05520180e-002, 5.10916747e-002,
          1.10724315e-001, 2.97502160e-001, 2.97502160e-001,
          1.12419441e-001, 1.84532836e-001, 1.09826669e-001,
          1.30657673e-001, 1.48579687e-001, 8.59409869e-002,
          1.61354646e-001, 2.72427440e-001, 1.31802753e-001,
          2.97502160e-001, 2.97502160e-001, 7.29914904e-002,
          3.75285409e-002, 2.49279458e-002, 2.23077033e-002,
          3.36433388e-002, 6.71934187e-002, 2.63409227e-001,
          2.30298892e-001, 2.70339578e-001, 1.16498657e-001,
          8.01315308e-002, 7.64560178e-002, 3.03952862e-002,
          3.80288474e-002, 3.95877026e-002, 7.38033652e-002,
          1.75101146e-001, 8.76776800e-002, 6.97074905e-002,
          4.94176447e-002, 5.60533553e-002, 4.05556336e-002,
          1.39974594e-001, 3.94028932e-001, 3.94028932e-001,
          3.94028932e-001, 8.86180997e-002, 5.68809547e-002,
          3.65033448e-002, 5.92191853e-002, 4.07230295e-002,
          8.70944485e-002, 3.38233978e-001, 3.94028932e-001,
          1.67925477e-001, 8.94270465e-002, 5.21593876e-002,
          2.99024303e-002, 4.81650792e-002, 3.01587023e-002,
          5.18923774e-002, 9.34380144e-002, 1.71938092e-001,
          1.45751044e-001, 9.12397280e-002, 5.85930273e-002,
          2.97436416e-002, 5.80792800e-002, 4.21398655e-002,
          6.42857105e-002, 1.01827711e-001, 1.66921735e-001,
          4.39764112e-001, 1.06396928e-001, 4.97360416e-002,
          3.26768644e-002, 5.01503684e-002, 4.15556617e-002,
          7.72112682e-002, 1.37650624e-001, 4.39764112e-001,
          4.39764112e-001, 1.52388781e-001, 5.22272959e-002,
          2.84283571e-002, 4.19479609e-002, 3.92396338e-002,
          6.82173073e-002, 1.31921113e-001, 4.39764112e-001,
          1.07722506e-001, 8.71269330e-002, 5.76259084e-002,
          3.11008636e-002, 6.73048273e-002, 4.54448313e-002,
          6.62381798e-002, 1.02093518e-001, 1.19147494e-001,
          1.18226781e-001, 9.48504806e-002, 6.02133088e-002,
          3.50798629e-002, 6.50352687e-002, 3.95929888e-002,
          6.82831928e-002, 1.08785622e-001, 1.29229814e-001,
          3.27896446e-001, 3.27896446e-001, 9.11869705e-002,
          4.09120992e-002, 4.98321876e-002, 4.30964604e-002,
          6.37419820e-002, 1.16729937e-001, 3.27896446e-001,
          3.27896446e-001, 3.27896446e-001, 1.35196745e-001,
          6.19914047e-002, 6.56991601e-002, 4.45558615e-002,
          7.01352581e-002, 1.11522585e-001, 2.75380701e-001,
          1.78034812e-001, 1.34171903e-001, 8.65453854e-002,
          5.65974265e-002, 7.31884167e-002, 5.45767024e-002,
          9.89798978e-002, 1.53186053e-001, 2.27143586e-001,
          1.77792966e-001, 1.46851599e-001, 1.06462054e-001,
          8.55449364e-002, 8.22307914e-002, 5.21545596e-002,
          9.39898640e-002, 1.47727385e-001, 1.99900091e-001 ]
      - [ 1.00739151e-001, 4.69038934e-002, 1.61250848e-002,
          4.40384913e-003, 1.66459344e-002, 8.00001342e-003,
          1.62279084e-002, 2.17309929e-002, 4.74344902e-002,
          2.36449584e-001, 3.49836536e-002, 1.16705820e-002,
          4.15919395e-003, 1.31420046e-002, 6.38126861e-003,
          1.74241494e-002, 2.32294183e-002, 1.14822969e-001,
          4.04980630e-001, 4.04980630e-001, 2.06753895e-001,
          9.71754640e-002, 9.76924375e-002, 3.77008095e-002,
          4.41816002e-002, 5.70109151e-002, 9.38237086e-002,
          4.04980630e-001, 4.04980630e-001, 6.46503493e-002,
          2.19506435e-002, 1.79905389e-002, 1.53951822e-002,
          3.39272469e-002, 6.99498504e-002, 4.04980630e-001,
          2.07934648e-001, 1.01090446e-002, 5.36445435e-003,
          2.23013689e-003, 8.29754770e-003, 3.28012416e-003,
          1.34175457e-002, 1.89847760e-002, 2.00644746e-001,
          8.63703489e-002, 3.09268548e-003, 1.84578274e-003,
          7.75649794e-004, 4.41703293e-003, 6.33832649e-004,
          4.85328492e-003, 1.76823325e-002, 1.98750466e-001,
          4.52311963e-001, 1.04019396e-001, 1.90894492e-002,
          6.94765104e-003, 7.31148710e-003, 8.19178298e-003,
          3.59882303e-002, 6.80695176e-002, 4.52311963e-001,
          4.52311963e-001, 4.54069674e-002, 1.82214100e-002,
          6.56624418e-003, 8.51032976e-003, 7.68880406e-003,
          3.47411968e-002, 1.56518102e-001, 4.52311963e-001,
          6.35492206e-002, 6.99982187e-003, 4.59121447e-003,
          2.32106308e-003, 1.32148433e-002, 1.38971291e-003,
          7.14720413e-003, 4.96021584e-002, 2.44098410e-001,
          2.19744463e-002, 4.97713964e-003, 6.25704601e-003,
          3.47217498e-003, 2.28461195e-002, 2.14928831e-003,
          8.35589971e-003, 2.37066429e-002, 5.36834635e-002,
          3.59569132e-001, 8.59718397e-002, 4.21900526e-002,
          2.77389064e-002, 7.70432726e-002, 7.13202879e-002,
          1.70893490e-001, 4.08311903e-001, 4.08311903e-001,
          6.45514950e-002, 4.02542874e-002, 3.77334654e-002,
          3.27587128e-002, 1.72989473e-001, 1.30755171e-001,
          2.30270311e-001, 4.08311903e-001, 3.70123833e-001,
          2.41703048e-001, 3.02799255e-001, 1.43621922e-001,
          9.81389955e-002, 1.34906277e-001, 6.96760640e-002,
          1.11073367e-001, 2.17979103e-001, 1.69953912e-001,
          3.02799255e-001, 2.37813175e-001, 5.36154024e-002,
          2.33477782e-002, 1.76321063e-002, 1.79249123e-002,
          4.38720025e-002, 1.80333838e-001, 3.02799255e-001,
          5.52239306e-002, 3.94939706e-002, 3.22054215e-002,
          3.46118882e-002, 7.03748018e-002, 5.25567718e-002,
          1.10241860e-001, 3.02799255e-001, 3.00411165e-001,
          2.62722492e-001, 4.37382907e-002, 1.96215641e-002,
          1.35013033e-002, 1.26087964e-002, 1.26934731e-002,
          3.88417467e-002, 2.29616255e-001, 3.02799255e-001,
          3.47281903e-001, 6.23595454e-002, 1.03539061e-002,
          4.48062131e-003, 3.60433478e-003, 5.18441712e-003,
          1.82960350e-002, 5.92293441e-002, 3.47281903e-001,
          3.47281903e-001, 5.96438088e-002, 1.37156751e-002,
          4.86971345e-003, 5.99533087e-003, 7.70521257e-003,
          2.29439735e-002, 8.19120407e-002, 3.47281903e-001,
          3.47281903e-001, 2.85266060e-002, 7.99664762e-003,
          4.72934730e-003, 4.13482450e-003, 6.84854295e-003,
          1.79560967e-002, 6.51285201e-002, 3.47281903e-001,
          3.47281903e-001, 7.17869997e-002, 1.09732049e-002,
          4.30786749e-003, 4.25982010e-003, 7.92049151e-003,
          1.84892416e-002, 3.80767994e-002, 3.47281903e-001,
          3.00777942e-001, 2.55672038e-001, 9.49916393e-002,
          3.62894684e-002, 8.30560476e-002, 5.89613095e-002,
          1.17541924e-001, 3.00777942e-001, 3.00777942e-001,
          1.04561061e-001, 1.69447958e-001, 1.30542159e-001,
          5.73806763e-002, 2.08812490e-001, 1.02220505e-001,
          1.43704072e-001, 1.98300004e-001, 1.42126068e-001,
          3.00777942e-001, 3.00777942e-001, 9.99177694e-002,
          2.93066129e-002, 4.43700179e-002, 2.14346480e-002,
          3.50094736e-002, 6.39941022e-002, 2.59525687e-001,
          2.16141582e-001, 2.67225176e-001, 1.50097996e-001,
          4.86520231e-002, 1.10148899e-001, 3.07762604e-002,
          3.30470875e-002, 3.59269120e-002, 7.82475546e-002,
          1.82805806e-001, 9.08683538e-002, 6.65084049e-002,
          4.29623052e-002, 6.88957870e-002, 4.15795334e-002,
          1.19281977e-001, 3.97843033e-001, 3.97843033e-001,
          3.97843033e-001, 9.50793177e-002, 6.28464893e-002,
          4.30069268e-002, 6.12487234e-002, 2.91335341e-002,
          7.28840977e-002, 3.43906611e-001, 3.97843033e-001,
          1.38157248e-001, 8.18099082e-002, 5.55785038e-002,
          3.28141674e-002, 5.41923046e-002, 3.03427074e-002,
          5.95381409e-002, 1.12085335e-001, 1.66964278e-001,
          1.30674288e-001, 8.17372054e-002, 6.19576015e-002,
          2.99858581e-002, 4.91788946e-002, 2.91043594e-002,
          6.77389801e-002, 1.19889811e-001, 1.50755078e-001,
          4.42647040e-001, 8.50427151e-002, 5.05373217e-002,
          2.60489695e-002, 3.70756127e-002, 2.83047725e-002,
          6.55962154e-002, 1.43443123e-001, 4.42647040e-001,
          4.42647040e-001, 1.49515107e-001, 5.06168976e-002,
          2.40219291e-002, 3.01818401e-002, 2.59109288e-002,
          6.22421876e-002, 1.26715794e-001, 4.42647040e-001,
          1.21515431e-001, 7.17896372e-002, 5.35119921e-002,
          2.16725580e-002, 3.54958959e-002, 2.23722812e-002,
          5.74767478e-002, 1.10659406e-001, 1.44973829e-001,
          1.15542509e-001, 8.21428522e-002, 6.20237328e-002,
          3.35513875e-002, 4.70957197e-002, 2.03941129e-002,
          4.87079695e-002, 1.24463148e-001, 1.41980976e-001,
          3.22201163e-001, 3.22201163e-001, 1.17390521e-001,
          5.14428280e-002, 4.79788482e-002, 2.72696186e-002,
          6.42888620e-002, 1.44703656e-001, 3.22201163e-001,
          3.22201163e-001, 3.22201163e-001, 1.63799942e-001,
          5.55745363e-002, 5.31285442e-002, 3.04635577e-002,
          6.24640435e-002, 1.03069954e-001, 2.45357111e-001,
          2.03642637e-001, 1.31110489e-001, 8.55769292e-002,
          5.01353964e-002, 5.82509004e-002, 2.39027962e-002,
          6.11922331e-002, 1.53058141e-001, 2.45713994e-001,
          2.31544793e-001, 1.59102306e-001, 1.04207516e-001,
          5.15867807e-002, 4.43269536e-002, 2.87165381e-002,
          5.77044562e-002, 1.14541136e-001, 2.30388075e-001 ]
      - [ 1.13818161e-001, 5.90015389e-002, 2.06140839e-002,
          9.19121131e-003, 1.27907721e-002, 7.47590000e-003,
          1.83843225e-002, 2.17517707e-002, 4.78904508e-002,
          2.11991891e-001, 3.17459628e-002, 8.57061893e-003,
          1.86857779e-003, 7.85084255e-003, 3.04296892e-003,
          1.12088537e-002, 2.07232051e-002, 1.30997390e-001,
          3.94605815e-001, 3.94605815e-001, 2.69291222e-001,
          1.08586833e-001, 1.07394196e-001, 4.56314124e-002,
          4.60603647e-002, 5.81317209e-002, 1.12831086e-001,
          3.94605815e-001, 3.94605815e-001, 8.20237324e-002,
          1.94299649e-002, 1.73159968e-002, 1.67594478e-002,
          3.58245745e-002, 9.10075605e-002, 3.94605815e-001,
          1.92409039e-001, 6.29778719e-003, 3.07453587e-003,
          1.41817072e-004, 6.25316799e-003, 1.15865259e-003,
          4.57586395e-003, 1.30814509e-002, 2.12900639e-001,
          1.04453593e-001, 2.20149569e-003, 1.45929516e-003,
          3.02797089e-005, 4.82440833e-003, 7.23188161e-004,
          2.67522386e-003, 1.24660414e-002, 2.03818500e-001,
          4.50807005e-001, 1.41541854e-001, 2.14905292e-002,
          2.29065469e-003, 8.56567174e-003, 9.28905886e-003,
          2.21494120e-002, 6.13262095e-002, 4.50807005e-001,
          4.50807005e-001, 3.57647501e-002, 9.98200849e-003,
          4.43809107e-003, 1.25396708e-002, 9.21861921e-003,
          2.42111553e-002, 1.42037660e-001, 4.50807005e-001,
          7.03807026e-002, 2.28635711e-003, 2.08742032e-003,
          1.17976786e-004, 9.43836663e-003, 9.69704648e-004,
          5.89666422e-003, 4.64666784e-002, 2.41345093e-001,
          1.62948985e-002, 3.00190691e-003, 2.15875357e-003,
          2.54916900e-004, 1.08008217e-002, 1.21685688e-003,
          8.16691946e-003, 2.79753581e-002, 5.12510873e-002,
          3.90992492e-001, 7.48206452e-002, 3.02330740e-002,
          3.86592001e-002, 7.26109445e-002, 6.65686652e-002,
          2.27480173e-001, 3.90992492e-001, 3.90992492e-001,
          5.49217053e-002, 2.88251378e-002, 1.98500454e-002,
          5.19836396e-002, 1.57852456e-001, 1.15901142e-001,
          3.23918134e-001, 3.90992492e-001, 3.09113264e-001,
          2.35939711e-001, 2.92663902e-001, 1.71269104e-001,
          9.87783149e-002, 1.38442129e-001, 8.08426440e-002,
          1.08132668e-001, 2.38308668e-001, 1.84103549e-001,
          2.92663902e-001, 2.55646825e-001, 5.61681464e-002,
          2.00952776e-002, 1.97901800e-002, 2.04362813e-002,
          4.38691862e-002, 1.82255462e-001, 2.92663902e-001,
          6.12289794e-002, 3.61979827e-002, 3.28236297e-002,
          3.26354876e-002, 6.86711743e-002, 5.84408827e-002,
          1.05926961e-001, 2.92663902e-001, 2.92663902e-001,
          2.78351009e-001, 4.07578908e-002, 1.63297150e-002,
          8.48685857e-003, 1.19332857e-002, 1.17417900e-002,
          3.35671157e-002, 2.19136760e-001, 2.92663902e-001,
          3.48513335e-001, 7.23470524e-002, 9.81127657e-003,
          1.73155870e-003, 3.60741490e-003, 4.93876869e-003,
          1.16134500e-002, 4.64112908e-002, 3.48513335e-001,
          3.48513335e-001, 5.65305836e-002, 9.42267943e-003,
          5.39610256e-003, 6.47152821e-003, 5.19632269e-003,
          1.46819605e-002, 6.71434999e-002, 3.48513335e-001,
          3.48513335e-001, 2.50926819e-002, 6.52770000e-003,
          2.01610662e-003, 3.31187691e-003, 2.67079449e-003,
          9.58945975e-003, 4.65653315e-002, 3.48513335e-001,
          3.48513335e-001, 7.25505576e-002, 9.97872744e-003,
          5.35333855e-003, 5.57663711e-003, 3.19612236e-003,
          8.97016563e-003, 2.43141986e-002, 3.48513335e-001,
          3.12655002e-001, 2.52936602e-001, 8.29332247e-002,
          6.08141050e-002, 7.12764189e-002, 5.28023057e-002,
          1.25959650e-001, 2.85089433e-001, 3.12655002e-001,
          1.17659874e-001, 1.58119261e-001, 1.04863100e-001,
          9.46091339e-002, 1.71937808e-001, 8.86300579e-002,
          1.68327391e-001, 1.74680725e-001, 1.14248239e-001,
          3.12655002e-001, 3.12655002e-001, 9.55941454e-002,
          4.67364602e-002, 4.06916142e-002, 2.17752028e-002,
          2.85301413e-002, 5.34899496e-002, 2.87979662e-001,
          2.24398583e-001, 2.56983727e-001, 1.34700179e-001,
          7.62544274e-002, 9.06801298e-002, 3.36701423e-002,
          3.77583317e-002, 4.43040580e-002, 7.09216967e-002,
          1.99968114e-001, 8.88282955e-002, 7.04051852e-002,
          4.11362052e-002, 7.91713521e-002, 3.60672884e-002,
          1.25467151e-001, 3.96503329e-001, 3.96503329e-001,
          3.96503329e-001, 1.01595335e-001, 6.03464842e-002,
          2.16293540e-002, 5.48638143e-002, 2.79012769e-002,
          6.70945421e-002, 3.26775014e-001, 3.96503329e-001,
          1.31243959e-001, 8.99885371e-002, 6.54771402e-002,
          3.12408861e-002, 5.75899109e-002, 3.92424278e-002,
          7.55487159e-002, 1.25820920e-001, 1.26191497e-001,
          1.43955842e-001, 9.52808708e-002, 6.69216439e-002,
          3.52894850e-002, 6.59579933e-002, 4.97016944e-002,
          8.19191858e-002, 1.27870247e-001, 1.46713555e-001,
          4.42811579e-001, 1.04661174e-001, 4.45783474e-002,
          1.73320211e-002, 3.08805685e-002, 2.02709846e-002,
          4.38420922e-002, 9.77542549e-002, 4.42811579e-001,
          4.42811579e-001, 1.55917346e-001, 5.04009053e-002,
          2.88745221e-002, 3.43469903e-002, 2.17063110e-002,
          4.31098081e-002, 8.48754048e-002, 4.42811579e-001,
          1.47959799e-001, 1.00734390e-001, 5.66591695e-002,
          3.21322456e-002, 5.05158342e-002, 3.96094583e-002,
          5.87027706e-002, 8.55601057e-002, 1.32264316e-001,
          1.73427820e-001, 1.24488555e-001, 5.77303432e-002,
          3.05873733e-002, 3.52670252e-002, 2.79072728e-002,
          4.94435988e-002, 7.08815157e-002, 1.37000218e-001,
          3.30730528e-001, 3.30730528e-001, 1.33561984e-001,
          5.54989390e-002, 5.53344265e-002, 3.67724970e-002,
          6.13974072e-002, 1.17293596e-001, 3.30730528e-001,
          3.30730528e-001, 3.30730528e-001, 1.68275207e-001,
          5.43074645e-002, 5.98203540e-002, 4.93772067e-002,
          8.21495205e-002, 1.25596836e-001, 2.09737554e-001,
          2.11413503e-001, 1.51117101e-001, 8.46948326e-002,
          3.87832746e-002, 4.19598036e-002, 3.46747003e-002,
          7.76632056e-002, 1.24428928e-001, 2.03864709e-001,
          2.11843893e-001, 1.75100178e-001, 1.11640856e-001,
          4.87513766e-002, 5.10500781e-002, 4.11577970e-002,
          7.63500929e-002, 1.24787211e-001, 2.11658910e-001 ]
      - [ 8.52052569e-002, 3.47857065e-002, 1.51448948e-002,
          9.87551641e-003, 2.21893545e-002, 1.08712073e-002,
          2.73582842e-002, 2.50298362e-002, 4.24322076e-002,
          2.05402613e-001, 2.21294183e-002, 4.81629465e-003,
          2.42268317e-003, 8.67916085e-003, 2.71073123e-003,
          1.04156649e-002, 1.14305578e-002, 8.67976621e-002,
          3.77774328e-001, 3.77774328e-001, 3.14949453e-001,
          1.51941329e-001, 1.52918726e-001, 5.99450245e-002,
          7.81265721e-002, 9.20325816e-002, 1.38154030e-001,
          3.77774328e-001, 3.77774328e-001, 1.15873471e-001,
          4.83531989e-002, 3.23965177e-002, 3.01905386e-002,
          7.33917952e-002, 1.16112240e-001, 3.77774328e-001,
          2.02236339e-001, 5.83163463e-003, 2.23365100e-003,
          2.72754725e-004, 4.03089542e-003, 2.04145414e-004,
          2.52026855e-003, 4.01995797e-003, 1.45004347e-001,
          1.31260484e-001, 2.41316133e-003, 2.40123691e-003,
          1.87846599e-004, 2.95696291e-003, 3.56177945e-004,
          3.13015236e-003, 1.48310317e-002, 2.04457194e-001,
          4.56929743e-001, 9.47221518e-002, 1.51186883e-002,
          3.45732621e-003, 7.43680168e-003, 4.27108211e-003,
          2.14732047e-002, 5.17125800e-002, 4.56929743e-001,
          4.56929743e-001, 4.12834473e-002, 1.24305151e-002,
          2.81482469e-003, 7.44976848e-003, 7.44273514e-003,
          2.71998048e-002, 1.54504552e-001, 4.56929743e-001,
          7.10338950e-002, 2.62493896e-003, 3.47678410e-003,
          2.08986647e-004, 7.74717377e-003, 6.79608493e-004,
          5.34823071e-003, 4.12348285e-002, 2.15146706e-001,
          1.24206468e-002, 1.60411466e-003, 1.82320620e-003, 0.,
          9.32664424e-003, 3.38219863e-004, 4.95731132e-003,
          2.12762132e-002, 4.74863648e-002, 3.90161186e-001,
          1.13251701e-001, 3.66639085e-002, 1.81289595e-002,
          6.22280464e-002, 6.48803487e-002, 1.66581050e-001,
          3.90161186e-001, 3.90161186e-001, 9.68091339e-002,
          6.74639717e-002, 2.98627727e-002, 2.46051624e-002,
          1.62564933e-001, 1.41557246e-001, 2.58138150e-001,
          3.90161186e-001, 3.90161186e-001, 1.67823479e-001,
          2.90591925e-001, 1.79626495e-001, 1.09979019e-001,
          1.51134953e-001, 7.41356760e-002, 1.19608693e-001,
          2.37259418e-001, 1.74433336e-001, 2.90591925e-001,
          2.26199821e-001, 7.29239807e-002, 3.26538980e-002,
          2.19780710e-002, 2.33815685e-002, 5.73683269e-002,
          1.93477571e-001, 2.90591925e-001, 5.35093658e-002,
          4.51048315e-002, 4.69080582e-002, 4.08358015e-002,
          7.93924779e-002, 5.85118830e-002, 1.26397923e-001,
          2.90591925e-001, 2.90591925e-001, 2.90591925e-001,
          4.63155992e-002, 2.52860393e-002, 1.51413083e-002,
          1.34757832e-002, 1.48740197e-002, 4.61833067e-002,
          2.54515827e-001, 2.90591925e-001, 3.49230409e-001,
          4.49991934e-002, 7.40727969e-003, 1.77892204e-003,
          1.50139059e-003, 1.49479229e-003, 8.64447467e-003,
          3.74018028e-002, 3.49230409e-001, 3.49230409e-001,
          6.38904870e-002, 8.62010568e-003, 2.88897473e-003,
          3.77354259e-003, 5.08400705e-003, 1.33636240e-002,
          5.73639311e-002, 3.49230409e-001, 3.49230409e-001,
          2.25721803e-002, 7.58158322e-003, 3.89083009e-003,
          2.92387092e-003, 1.94708107e-003, 6.91549713e-003,
          4.05495167e-002, 3.49230409e-001, 3.49230409e-001,
          8.22335929e-002, 1.02802664e-002, 5.27389580e-003,
          4.90297796e-003, 3.74722900e-003, 7.28052296e-003,
          1.75246168e-002, 3.49230409e-001, 3.04413706e-001,
          2.91222155e-001, 5.98333515e-002, 2.05881838e-002,
          5.07827736e-002, 5.08900620e-002, 8.33753794e-002,
          2.12222040e-001, 3.04413706e-001, 1.69247717e-001,
          2.28923291e-001, 1.07833356e-001, 4.38073166e-002,
          1.56989679e-001, 1.16029851e-001, 1.20789342e-001,
          1.57323614e-001, 1.39935434e-001, 3.04413706e-001,
          3.04413706e-001, 6.66281357e-002, 2.11989135e-002,
          3.41236331e-002, 2.40030736e-002, 2.45270692e-002,
          3.67815793e-002, 2.56282449e-001, 2.84585029e-001,
          3.04413706e-001, 1.37435332e-001, 4.58688550e-002,
          9.62401628e-002, 5.43909520e-002, 3.09451651e-002,
          3.18208337e-002, 7.47104511e-002, 1.57697991e-001,
          8.10014307e-002, 8.11000615e-002, 4.31680158e-002,
          5.21274507e-002, 4.63890731e-002, 1.49244159e-001,
          3.98261547e-001, 3.98261547e-001, 3.98261547e-001,
          9.10862386e-002, 6.84961155e-002, 4.67430912e-002,
          4.77250107e-002, 4.06995900e-002, 8.91891941e-002,
          3.64438832e-001, 3.98261547e-001, 1.22389659e-001,
          7.73591623e-002, 5.66743463e-002, 3.24737802e-002,
          4.92904037e-002, 3.68676260e-002, 6.68136254e-002,
          9.30792391e-002, 1.42557323e-001, 1.30824789e-001,
          9.86740366e-002, 6.83086514e-002, 4.39391248e-002,
          5.31010665e-002, 4.53876890e-002, 7.70962313e-002,
          9.84873846e-002, 1.35054410e-001, 4.57115173e-001,
          8.18593800e-002, 4.28612977e-002, 3.00624371e-002,
          3.03941928e-002, 1.93722975e-002, 4.46408615e-002,
          1.05968356e-001, 4.57115173e-001, 4.57115173e-001,
          1.55254096e-001, 5.44035286e-002, 3.04308534e-002,
          3.00825834e-002, 1.79179851e-002, 3.99135500e-002,
          6.23808727e-002, 4.57115173e-001, 1.17016546e-001,
          8.15715492e-002, 5.16765863e-002, 3.36224809e-002,
          3.39457430e-002, 2.36473400e-002, 5.52800782e-002,
          7.87681714e-002, 1.18355624e-001, 1.20907187e-001,
          9.02827457e-002, 5.78920953e-002, 3.33238915e-002,
          3.38758416e-002, 1.85758974e-002, 4.74937782e-002,
          7.73292854e-002, 1.21928841e-001, 3.66265029e-001,
          3.66265029e-001, 1.28829315e-001, 5.96844144e-002,
          6.47224784e-002, 3.95362154e-002, 5.30698821e-002,
          7.30973706e-002, 3.66265029e-001, 3.66265029e-001,
          3.66265029e-001, 2.02365056e-001, 7.64107630e-002,
          7.63859972e-002, 5.45787998e-002, 6.27509952e-002,
          8.53262395e-002, 1.73418880e-001, 1.47770241e-001,
          1.45879611e-001, 9.64323357e-002, 4.70634066e-002,
          5.17488457e-002, 3.18915248e-002, 5.05710728e-002,
          8.91219676e-002, 1.38138935e-001, 1.80175006e-001,
          1.71750203e-001, 1.14970833e-001, 4.95898873e-002,
          5.40667959e-002, 3.10963430e-002, 4.74702008e-002,
          7.20956177e-002, 1.33171603e-001 ]
      - [ 9.29314718e-002, 3.52180861e-002, 1.67714786e-002,
          8.38005636e-003, 2.61861347e-002, 1.22276247e-002,
          2.07551848e-002, 1.49825327e-002, 4.82538417e-002,
          2.09905788e-001, 2.09292099e-002, 5.36460197e-003,
          2.44465820e-003, 8.48902203e-003, 3.49002378e-003,
          6.61649881e-003, 6.96147420e-003, 7.97884017e-002,
          3.75880450e-001, 3.75880450e-001, 3.18433732e-001,
          1.23659000e-001, 1.63589999e-001, 7.50095844e-002,
          6.97277710e-002, 9.53283310e-002, 1.85677812e-001,
          3.75880450e-001, 3.75880450e-001, 1.08231150e-001,
          3.69040035e-002, 4.55354787e-002, 3.46830711e-002,
          4.58925180e-002, 9.34207886e-002, 3.75880450e-001,
          2.07067192e-001, 7.01281289e-003, 1.77559722e-003,
          1.04287127e-003, 3.11676390e-003, 1.18015043e-003,
          1.55242719e-003, 5.54256700e-003, 1.39335841e-001,
          1.33123904e-001, 4.42269258e-003, 2.09878571e-003,
          6.82293903e-004, 4.16290062e-003, 1.12911884e-003,
          1.28519139e-003, 1.19714709e-002, 2.13938594e-001,
          4.57354158e-001, 9.32141244e-002, 1.47062503e-002,
          6.75046304e-003, 6.73492765e-003, 4.22248058e-003,
          8.22416227e-003, 3.94151807e-002, 4.57354158e-001,
          4.57354158e-001, 6.26227483e-002, 1.55595159e-002,
          4.58264491e-003, 8.57192371e-003, 5.85426949e-003,
          1.59174521e-002, 1.32252768e-001, 4.57354158e-001,
          7.03901798e-002, 4.66208626e-003, 3.60708800e-003,
          5.49908611e-004, 5.45211602e-003, 1.17049762e-003,
          3.97104863e-003, 3.29391882e-002, 2.22723991e-001,
          1.28136510e-002, 1.78592431e-003, 2.90826964e-003,
          6.55887357e-004, 6.43463805e-003, 1.33190327e-003,
          7.17615383e-003, 2.21191701e-002, 5.20545058e-002,
          3.82676810e-001, 1.33834690e-001, 4.89640348e-002,
          2.26546396e-002, 4.86809686e-002, 5.71751818e-002,
          1.68549478e-001, 3.82676810e-001, 3.82676810e-001,
          1.07416190e-001, 6.93483278e-002, 3.87961008e-002,
          3.72992083e-002, 1.29542306e-001, 1.42614365e-001,
          3.05838972e-001, 3.82676810e-001, 3.82676810e-001,
          1.65906340e-001, 2.64778793e-001, 1.83566958e-001,
          9.37805548e-002, 1.65855989e-001, 8.51713642e-002,
          1.11375861e-001, 2.53854185e-001, 1.95209280e-001,
          2.93704927e-001, 1.90079540e-001, 7.45607093e-002,
          2.78236065e-002, 3.16656902e-002, 2.51499601e-002,
          4.56171855e-002, 1.98011756e-001, 2.93704927e-001,
          6.05723634e-002, 4.52883914e-002, 4.56448495e-002,
          3.58252265e-002, 8.83974060e-002, 6.22454844e-002,
          1.14600360e-001, 2.93704927e-001, 2.93704927e-001,
          2.93704927e-001, 4.75865006e-002, 2.70679835e-002,
          1.19788796e-002, 1.53901987e-002, 1.58384945e-002,
          3.99878770e-002, 2.55195916e-001, 2.93704927e-001,
          3.48490536e-001, 4.30126898e-002, 7.45537318e-003,
          2.71765236e-003, 2.21176213e-003, 1.68471818e-003,
          4.50354908e-003, 3.73402387e-002, 3.48490536e-001,
          3.48490536e-001, 8.00212920e-002, 1.04656974e-002,
          3.41607607e-003, 3.71789816e-003, 3.76850390e-003,
          9.14420094e-003, 5.44274375e-002, 3.48490536e-001,
          3.48490536e-001, 2.21373253e-002, 6.37413654e-003,
          3.08720581e-003, 3.34974355e-003, 4.55365889e-003,
          6.83088740e-003, 4.53496724e-002, 3.48490536e-001,
          3.48490536e-001, 9.19180363e-002, 1.13637028e-002,
          5.28319692e-003, 4.85195965e-003, 4.10802150e-003,
          7.95637630e-003, 2.51746308e-002, 3.48490536e-001,
          3.03578049e-001, 3.03578049e-001, 7.84040913e-002,
          2.84694396e-002, 4.25830893e-002, 4.50843386e-002,
          8.99842009e-002, 2.05872864e-001, 3.03578049e-001,
          1.68544501e-001, 2.35154539e-001, 1.18801638e-001,
          6.32131025e-002, 1.33102670e-001, 1.18509389e-001,
          1.51051715e-001, 1.60538554e-001, 1.46799430e-001,
          3.03578049e-001, 3.03578049e-001, 7.98988268e-002,
          2.34780572e-002, 2.52343938e-002, 2.03523636e-002,
          2.74264030e-002, 4.89817895e-002, 2.43090212e-001,
          2.65158892e-001, 3.03578049e-001, 1.38689160e-001,
          5.74606247e-002, 7.83083886e-002, 5.28423712e-002,
          3.86556387e-002, 3.87621932e-002, 6.33428693e-002,
          1.74963653e-001, 9.05789211e-002, 6.31126985e-002,
          4.50091772e-002, 7.16064200e-002, 5.24993464e-002,
          1.44272745e-001, 3.95914197e-001, 3.95914197e-001,
          3.95914197e-001, 1.09684758e-001, 5.67966774e-002,
          2.61139274e-002, 4.76721078e-002, 5.19749410e-002,
          8.48302245e-002, 3.49305153e-001, 3.95914197e-001,
          1.00596979e-001, 6.48425668e-002, 4.82443497e-002,
          4.09662239e-002, 6.65639192e-002, 5.76557294e-002,
          8.81508589e-002, 1.16273135e-001, 1.24361746e-001,
          1.39247403e-001, 1.04256652e-001, 6.22420348e-002,
          3.59706059e-002, 6.40363097e-002, 5.73130324e-002,
          8.09210986e-002, 1.03707604e-001, 1.49828166e-001,
          4.49368626e-001, 8.92900079e-002, 4.39748690e-002,
          2.36499049e-002, 3.00144739e-002, 3.71297933e-002,
          4.61173579e-002, 1.06385790e-001, 4.49368626e-001,
          4.49368626e-001, 1.44427285e-001, 6.04381189e-002,
          3.83871645e-002, 3.50173078e-002, 2.44168006e-002,
          5.36729246e-002, 8.64275247e-002, 4.49368626e-001,
          1.41997859e-001, 1.00994565e-001, 5.29444665e-002,
          2.65801959e-002, 3.99202481e-002, 3.06956246e-002,
          4.70265709e-002, 6.92287982e-002, 1.41960293e-001,
          1.26745135e-001, 9.41196382e-002, 6.71131313e-002,
          4.05349135e-002, 4.73269261e-002, 2.44177785e-002,
          5.45027889e-002, 7.03602880e-002, 1.34318173e-001,
          3.63539070e-001, 3.63539070e-001, 1.26597717e-001,
          5.41173518e-002, 5.15073054e-002, 3.18453386e-002,
          7.09092021e-002, 1.04079865e-001, 3.63539070e-001,
          3.63539070e-001, 3.63539070e-001, 1.66686803e-001,
          5.82338423e-002, 6.99366555e-002, 5.38377538e-002,
          8.48007277e-002, 1.10204287e-001, 1.66383564e-001,
          1.59836873e-001, 1.40020177e-001, 9.95294154e-002,
          6.23714104e-002, 6.71196431e-002, 3.20002660e-002,
          6.74819425e-002, 8.52164477e-002, 1.50169060e-001,
          1.81450665e-001, 1.41846716e-001, 8.49687457e-002,
          5.05550914e-002, 5.89232817e-002, 4.12787162e-002,
          6.16342761e-002, 1.06307864e-001, 1.70746401e-001 ]
      - [ 9.29196700e-002, 4.56606783e-002, 2.20761299e-002,
          1.35488482e-002, 2.73258425e-002, 1.44900400e-002,
          2.13741865e-002, 2.73899082e-002, 4.65823635e-002,
          2.08692908e-001, 2.23221704e-002, 5.09301899e-003,
          2.88746390e-003, 9.34060756e-003, 3.34733608e-003,
          7.70531641e-003, 1.20408451e-002, 8.48280415e-002,
          3.74864697e-001, 3.74864697e-001, 3.18858117e-001,
          1.35849431e-001, 1.45100310e-001, 6.83978423e-002,
          7.84004331e-002, 1.05292387e-001, 1.71063527e-001,
          3.74864697e-001, 3.74864697e-001, 1.18962683e-001,
          4.14403416e-002, 2.62694713e-002, 2.89900769e-002,
          6.75598606e-002, 1.09597534e-001, 3.74864697e-001,
          2.04184264e-001, 7.24189822e-003, 1.00774947e-003,
          4.82714910e-004, 4.90022125e-003, 2.77425832e-004,
          1.91570190e-003, 6.41048560e-003, 1.44698068e-001,
          1.31741062e-001, 4.99378471e-003, 1.76683639e-003,
          8.36750551e-004, 2.97145383e-003, 3.03568435e-004,
          1.69475167e-003, 1.18289459e-002, 2.12936297e-001,
          4.56255108e-001, 8.66038725e-002, 1.21046621e-002,
          3.77261336e-003, 8.22588615e-003, 2.77839252e-003,
          1.57887973e-002, 5.51354960e-002, 4.56255108e-001,
          4.56255108e-001, 6.17931560e-002, 1.09033762e-002,
          3.90475569e-003, 7.80118816e-003, 7.01280078e-003,
          2.34153252e-002, 1.46635711e-001, 4.56255108e-001,
          7.20790923e-002, 6.26618974e-003, 4.03416948e-003,
          1.22245878e-003, 3.52382567e-003, 7.86076649e-004,
          4.28067148e-003, 3.26908417e-002, 2.21918553e-001,
          1.46743199e-002, 2.58953217e-003, 2.61056307e-003,
          1.18274045e-004, 4.04955540e-003, 8.70380725e-004,
          4.76112403e-003, 2.18049660e-002, 5.28129451e-002,
          3.82651389e-001, 1.36309013e-001, 4.53062952e-002,
          2.87706982e-002, 5.89918867e-002, 5.71868941e-002,
          1.69126227e-001, 3.82651389e-001, 3.82651389e-001,
          1.47905231e-001, 7.16399178e-002, 4.50812057e-002,
          4.47176285e-002, 1.69763744e-001, 1.12816259e-001,
          2.74829179e-001, 3.82651389e-001, 3.82651389e-001,
          1.68986261e-001, 2.65551478e-001, 1.85841188e-001,
          1.00433514e-001, 1.61583647e-001, 7.89713115e-002,
          1.19456135e-001, 2.52667189e-001, 2.01869294e-001,
          2.99895406e-001, 1.87828735e-001, 8.13801512e-002,
          3.28638181e-002, 2.10490227e-002, 2.06712969e-002,
          5.61302565e-002, 1.89200565e-001, 2.99895406e-001,
          5.32737486e-002, 3.78529020e-002, 4.59587090e-002,
          3.91249284e-002, 8.81213024e-002, 5.88379949e-002,
          1.14071377e-001, 2.99895406e-001, 2.99895406e-001,
          2.82774389e-001, 4.03439030e-002, 2.65500657e-002,
          1.66567285e-002, 1.58059243e-002, 1.39733218e-002,
          4.21487428e-002, 2.29489297e-001, 2.99895406e-001,
          3.48482072e-001, 4.19457257e-002, 6.81929803e-003,
          1.92286202e-003, 1.74769876e-003, 1.56312843e-003,
          7.02457456e-003, 3.95170152e-002, 3.48482072e-001,
          3.48482072e-001, 7.92535096e-002, 9.73261613e-003,
          3.28366528e-003, 4.44673980e-003, 6.64882595e-003,
          1.54911475e-002, 6.35812655e-002, 3.48482072e-001,
          3.48482072e-001, 2.20046118e-002, 6.34376239e-003,
          3.07804346e-003, 4.40292852e-003, 4.40613320e-003,
          8.60517938e-003, 4.34996821e-002, 3.48482072e-001,
          3.48482072e-001, 8.47472176e-002, 1.10313082e-002,
          3.90208070e-003, 4.89504216e-003, 8.43790360e-003,
          1.02181807e-002, 2.79876217e-002, 3.48482072e-001,
          2.97501177e-001, 2.88609773e-001, 7.62834027e-002,
          3.59504148e-002, 5.87100610e-002, 4.68548983e-002,
          1.00668594e-001, 2.13900059e-001, 2.97501177e-001,
          1.78173482e-001, 2.29639336e-001, 1.32895559e-001,
          7.18768090e-002, 1.79309249e-001, 8.95796642e-002,
          1.45075202e-001, 1.93631679e-001, 1.50508910e-001,
          2.97501177e-001, 2.97501177e-001, 7.65246451e-002,
          2.58726794e-002, 3.23757604e-002, 2.37868018e-002,
          3.26362848e-002, 4.53708321e-002, 2.18786165e-001,
          2.66210109e-001, 2.97501177e-001, 1.52081102e-001,
          6.03816062e-002, 9.75721553e-002, 3.72243002e-002,
          4.03346866e-002, 3.88078392e-002, 5.53814694e-002,
          1.57263711e-001, 8.18553343e-002, 7.16673285e-002,
          5.31538650e-002, 6.82802349e-002, 6.01795502e-002,
          1.47614047e-001, 4.01775092e-001, 4.01775092e-001,
          4.01775092e-001, 9.29280818e-002, 6.94936290e-002,
          5.19616306e-002, 6.60590455e-002, 5.58636636e-002,
          9.82826352e-002, 3.20703119e-001, 4.01775092e-001,
          1.34675920e-001, 8.07284862e-002, 5.88454008e-002,
          2.93240752e-002, 4.78088222e-002, 3.80507894e-002,
          6.92156032e-002, 1.05744831e-001, 1.47929654e-001,
          1.42868549e-001, 1.05984420e-001, 8.26662034e-002,
          5.11206277e-002, 5.74550889e-002, 3.57862189e-002,
          6.49045706e-002, 8.74113515e-002, 1.28737435e-001,
          4.57964092e-001, 8.24479684e-002, 4.88288403e-002,
          2.87340265e-002, 4.74925376e-002, 3.53246368e-002,
          5.45976944e-002, 1.15104973e-001, 4.57964092e-001,
          4.57964092e-001, 1.36178538e-001, 5.00602126e-002,
          2.68563814e-002, 4.14083898e-002, 4.21735495e-002,
          5.05299047e-002, 1.00757390e-001, 4.57964092e-001,
          1.03002504e-001, 8.61290246e-002, 6.27390146e-002,
          3.53119336e-002, 4.39416133e-002, 2.53281184e-002,
          4.96168360e-002, 7.24039450e-002, 9.47305262e-002,
          1.07311860e-001, 8.79371688e-002, 6.95808157e-002,
          3.88224274e-002, 5.15395664e-002, 3.67886797e-002,
          5.01319617e-002, 7.41901472e-002, 9.32950154e-002,
          3.65161002e-001, 3.65161002e-001, 1.11466430e-001,
          4.66081873e-002, 5.06268404e-002, 5.14166690e-002,
          6.69708028e-002, 1.18387267e-001, 3.65161002e-001,
          3.65161002e-001, 3.65161002e-001, 1.79274976e-001,
          7.07064494e-002, 8.20326731e-002, 6.33276775e-002,
          8.81397501e-002, 1.19253010e-001, 1.69363260e-001,
          1.47809282e-001, 1.26099482e-001, 9.79392081e-002,
          5.26082590e-002, 7.44257867e-002, 5.83297685e-002,
          7.24156350e-002, 1.02801763e-001, 1.34038702e-001,
          1.38827726e-001, 1.21618785e-001, 1.07003756e-001,
          5.91854043e-002, 8.85116681e-002, 7.46193230e-002,
          9.60357264e-002, 1.07078798e-001, 1.29789516e-001 ]
      - [ 1.00303486e-001, 5.72471507e-002, 2.66708490e-002,
          1.09100156e-002, 2.35501397e-002, 1.07250372e-002,
          2.17476636e-002, 2.58779526e-002, 4.96196412e-002,
          2.01013267e-001, 3.34271416e-002, 1.25202611e-002,
          4.38921526e-003, 1.70377772e-002, 6.20996440e-003,
          1.41816456e-002, 1.67748705e-002, 1.06100142e-001,
          3.85992110e-001, 3.85992110e-001, 2.91415036e-001,
          9.61813778e-002, 1.43432736e-001, 5.30981459e-002,
          4.58109081e-002, 7.16414824e-002, 1.37754306e-001,
          3.85992110e-001, 3.85992110e-001, 1.07085779e-001,
          3.73034067e-002, 3.38691659e-002, 3.06389034e-002,
          5.51172644e-002, 1.31252393e-001, 3.85992110e-001,
          1.94890082e-001, 7.71378493e-003, 3.26398178e-003,
          8.30032222e-004, 5.54441242e-003, 1.23762421e-003,
          4.83647967e-003, 8.98558181e-003, 1.61715508e-001,
          1.29534617e-001, 4.97054216e-003, 2.53808475e-003,
          8.55090853e-004, 3.49073205e-003, 7.37828261e-004,
          1.78868149e-003, 1.25615615e-002, 2.04353273e-001,
          4.50440794e-001, 1.61402926e-001, 1.41808828e-002,
          6.37636147e-003, 7.89040979e-003, 7.19859311e-003,
          2.74940748e-002, 7.96245113e-002, 4.50440794e-001,
          4.50440794e-001, 5.41938953e-002, 1.53308157e-002,
          3.63144442e-003, 8.29326734e-003, 6.45125750e-003,
          2.23670639e-002, 1.53388202e-001, 4.50440794e-001,
          7.62942508e-002, 5.01343329e-003, 4.67787124e-003,
          1.36292377e-003, 7.35188229e-003, 2.10209959e-003,
          3.94131383e-003, 4.18231897e-002, 2.26872027e-001,
          1.21490676e-002, 2.11825315e-003, 3.19202477e-003,
          4.14019305e-004, 6.36503007e-003, 1.25514658e-003,
          2.99969106e-003, 2.72158161e-002, 5.08029051e-002,
          3.85318846e-001, 1.29407808e-001, 5.34138419e-002,
          1.92500558e-002, 4.85622287e-002, 6.04089387e-002,
          1.66014209e-001, 3.85318846e-001, 3.85318846e-001,
          1.24699652e-001, 7.20885620e-002, 4.87514175e-002,
          3.05906199e-002, 1.25509307e-001, 1.56118318e-001,
          2.70879000e-001, 3.85318846e-001, 3.85318846e-001,
          1.93087444e-001, 2.90120721e-001, 1.66986004e-001,
          7.52938390e-002, 1.64788410e-001, 7.38955140e-002,
          1.07055940e-001, 2.27982715e-001, 1.77020088e-001,
          2.90120721e-001, 2.72598356e-001, 7.02590421e-002,
          2.59178653e-002, 2.52293125e-002, 2.89415289e-002,
          4.98673320e-002, 2.03816116e-001, 2.90120721e-001,
          5.02282158e-002, 4.40939069e-002, 3.70016247e-002,
          2.99267713e-002, 8.87519717e-002, 5.56858890e-002,
          1.09143019e-001, 2.90120721e-001, 2.90120721e-001,
          2.80645758e-001, 4.87261787e-002, 2.30143052e-002,
          1.20010404e-002, 1.55026289e-002, 1.84442662e-002,
          3.81449610e-002, 2.34452769e-001, 2.90120721e-001,
          3.48088175e-001, 7.41536617e-002, 7.67195830e-003,
          2.88363453e-003, 1.84199435e-003, 3.04554286e-003,
          9.04856436e-003, 5.29884435e-002, 3.48088175e-001,
          3.48088175e-001, 6.67756200e-002, 1.09442472e-002,
          2.85337633e-003, 2.54700193e-003, 4.46906034e-003,
          1.33545194e-002, 6.54436350e-002, 3.48088175e-001,
          3.48088175e-001, 2.69783624e-002, 7.95516931e-003,
          4.02839528e-003, 3.66338692e-003, 3.06031061e-003,
          6.25663390e-003, 4.70814742e-002, 3.48088175e-001,
          3.48088175e-001, 7.55709633e-002, 1.04865571e-002,
          4.46271012e-003, 3.71964904e-003, 3.86210298e-003,
          9.35926381e-003, 2.47634556e-002, 3.48088175e-001,
          3.00128520e-001, 2.94337451e-001, 8.36522877e-002,
          2.61932556e-002, 3.61861289e-002, 5.13527617e-002,
          9.40317512e-002, 2.44111285e-001, 3.00128520e-001,
          1.71333671e-001, 2.31392369e-001, 1.29107773e-001,
          5.55741265e-002, 1.19331568e-001, 1.44380271e-001,
          1.36460140e-001, 1.93002224e-001, 1.46643892e-001,
          3.00128520e-001, 3.00128520e-001, 7.68219084e-002,
          2.31550280e-002, 2.07174513e-002, 2.33256854e-002,
          2.93760747e-002, 4.27274033e-002, 2.34160170e-001,
          2.52440810e-001, 3.00128520e-001, 1.36224136e-001,
          5.16285002e-002, 6.58091977e-002, 6.56293258e-002,
          3.48754562e-002, 3.87715660e-002, 5.97059727e-002,
          1.70117244e-001, 9.64657813e-002, 7.52398372e-002,
          6.07832558e-002, 7.87842199e-002, 6.85429350e-002,
          1.30730361e-001, 3.90917987e-001, 3.90917987e-001,
          3.90917987e-001, 1.18459597e-001, 7.65377730e-002,
          4.90332022e-002, 6.40315637e-002, 4.44488600e-002,
          7.61582926e-002, 3.19357455e-001, 3.90917987e-001,
          1.32074982e-001, 9.13742781e-002, 6.94685951e-002,
          4.76373099e-002, 5.54312505e-002, 4.55998145e-002,
          7.87544698e-002, 1.21621877e-001, 1.51483417e-001,
          1.50428057e-001, 1.11376889e-001, 7.58684427e-002,
          4.64533828e-002, 6.12111092e-002, 3.90084758e-002,
          6.80783540e-002, 1.10282704e-001, 1.61481157e-001,
          4.52186733e-001, 9.76745412e-002, 6.31390214e-002,
          3.78125831e-002, 4.08593230e-002, 2.73080915e-002,
          4.90385368e-002, 9.54146832e-002, 4.52186733e-001,
          4.52186733e-001, 1.35830462e-001, 5.43761887e-002,
          3.45677957e-002, 3.41778323e-002, 2.77686268e-002,
          4.99939732e-002, 8.33035335e-002, 4.52186733e-001,
          1.23780161e-001, 8.95356014e-002, 6.81362823e-002,
          3.65934223e-002, 4.58385609e-002, 2.78937500e-002,
          4.78804931e-002, 6.85610101e-002, 1.14230938e-001,
          1.47489861e-001, 8.42104703e-002, 6.36452660e-002,
          3.93553525e-002, 4.57255207e-002, 3.36745940e-002,
          4.92283218e-002, 6.90344945e-002, 1.32787287e-001,
          3.51479679e-001, 3.51479679e-001, 1.18227236e-001,
          5.81129789e-002, 5.61813116e-002, 3.69410031e-002,
          6.92618936e-002, 1.04465738e-001, 3.51479679e-001,
          3.51479679e-001, 3.51479679e-001, 1.65121883e-001,
          7.60286748e-002, 8.17970261e-002, 5.02382815e-002,
          8.89620036e-002, 1.17440850e-001, 1.63493931e-001,
          1.97145030e-001, 1.25863284e-001, 9.49725881e-002,
          5.56993596e-002, 6.22850209e-002, 3.95316444e-002,
          6.15036264e-002, 1.06755733e-001, 1.93410605e-001,
          1.86295003e-001, 1.47036284e-001, 1.02304265e-001,
          5.19658625e-002, 6.79340363e-002, 3.88923697e-002,
          7.54290223e-002, 1.20950483e-001, 1.72388569e-001 ]
      - [ 6.35679290e-002, 3.29963751e-002, 2.61883549e-002,
          1.37277832e-002, 3.88337225e-002, 1.30701093e-002,
          2.70788558e-002, 2.80267671e-002, 4.23803702e-002,
          1.43792167e-001, 2.28043944e-002, 1.51035339e-002,
          6.76958449e-003, 3.04879602e-002, 9.01463721e-003,
          1.74953900e-002, 2.29896810e-002, 8.71025920e-002,
          3.94630969e-001, 3.94630969e-001, 3.18789631e-001,
          1.01035513e-001, 1.10602789e-001, 3.10755167e-002,
          4.51455712e-002, 4.99498062e-002, 1.14669807e-001,
          3.94630969e-001, 3.94630969e-001, 1.17275842e-001,
          3.33279334e-002, 2.86662132e-002, 2.60327104e-002,
          7.60440603e-002, 1.03087269e-001, 3.94630969e-001,
          1.48297578e-001, 5.39952004e-003, 4.06256318e-003,
